{"learner":{"attributes":{"best_iteration":"299","best_ntree_limit":"300","scikit_learn":"{\"n_estimators\": 300, \"objective\": \"reg:squarederror\", \"max_depth\": 10, \"max_leaves\": null, \"max_bin\": null, \"grow_policy\": null, \"learning_rate\": 0.1, \"verbosity\": null, \"booster\": null, \"tree_method\": null, \"gamma\": 0.01, \"min_child_weight\": null, \"max_delta_step\": null, \"subsample\": null, \"sampling_method\": null, \"colsample_bytree\": null, \"colsample_bylevel\": null, \"colsample_bynode\": null, \"reg_alpha\": null, \"reg_lambda\": null, \"scale_pos_weight\": null, \"base_score\": null, \"missing\": NaN, \"num_parallel_tree\": null, \"random_state\": 429, \"n_jobs\": null, \"monotone_constraints\": null, \"interaction_constraints\": null, \"importance_type\": null, \"gpu_id\": null, \"validate_parameters\": null, \"predictor\": null, \"enable_categorical\": false, \"feature_types\": null, \"max_cat_to_onehot\": null, \"max_cat_threshold\": null, \"eval_metric\": null, \"early_stopping_rounds\": null, \"callbacks\": null, \"_estimator_type\": \"regressor\"}"},"feature_names":["LBOVI","LBOKV100","LBOKV40","ARTR2","LBOPP","Feed","Hour","Day","Month","Year"],"feature_types":["float","float","float","float","float","float","int","int","int","int"],"gradient_booster":{"model":{"gbtree_model_param":{"num_parallel_tree":"1","num_trees":"300","size_leaf_vector":"0"},"tree_info":[0,0,0,0,0,0,0,0,0,0,0,0,0,0,0,0,0,0,0,0,0,0,0,0,0,0,0,0,0,0,0,0,0,0,0,0,0,0,0,0,0,0,0,0,0,0,0,0,0,0,0,0,0,0,0,0,0,0,0,0,0,0,0,0,0,0,0,0,0,0,0,0,0,0,0,0,0,0,0,0,0,0,0,0,0,0,0,0,0,0,0,0,0,0,0,0,0,0,0,0,0,0,0,0,0,0,0,0,0,0,0,0,0,0,0,0,0,0,0,0,0,0,0,0,0,0,0,0,0,0,0,0,0,0,0,0,0,0,0,0,0,0,0,0,0,0,0,0,0,0,0,0,0,0,0,0,0,0,0,0,0,0,0,0,0,0,0,0,0,0,0,0,0,0,0,0,0,0,0,0,0,0,0,0,0,0,0,0,0,0,0,0,0,0,0,0,0,0,0,0,0,0,0,0,0,0,0,0,0,0,0,0,0,0,0,0,0,0,0,0,0,0,0,0,0,0,0,0,0,0,0,0,0,0,0,0,0,0,0,0,0,0,0,0,0,0,0,0,0,0,0,0,0,0,0,0,0,0,0,0,0,0,0,0,0,0,0,0,0,0,0,0,0,0,0,0,0,0,0,0,0,0,0,0,0,0,0,0,0,0,0,0,0,0,0,0,0,0,0,0],"trees":[{"base_weights":[3.8181607E2],"categories":[],"categories_nodes":[],"categories_segments":[],"categories_sizes":[],"default_left":[0],"id":0,"left_children":[-1],"loss_changes":[0E0],"parents":[2147483647],"right_children":[-1],"split_conditions":[3.8181606E1],"split_indices":[0],"split_type":[0],"sum_hessian":[1.541E3],"tree_param":{"num_deleted":"0","num_feature":"10","num_nodes":"1","size_leaf_vector":"0"}},{"base_weights":[3.4365924E2],"categories":[],"categories_nodes":[],"categories_segments":[],"categories_sizes":[],"default_left":[0],"id":1,"left_children":[-1],"loss_changes":[0E0],"parents":[2147483647],"right_children":[-1],"split_conditions":[3.4365925E1],"split_indices":[0],"split_type":[0],"sum_hessian":[1.541E3],"tree_param":{"num_deleted":"0","num_feature":"10","num_nodes":"1","size_leaf_vector":"0"}},{"base_weights":[3.0931558E2],"categories":[],"categories_nodes":[],"categories_segments":[],"categories_sizes":[],"default_left":[0],"id":2,"left_children":[-1],"loss_changes":[0E0],"parents":[2147483647],"right_children":[-1],"split_conditions":[3.0931559E1],"split_indices":[0],"split_type":[0],"sum_hessian":[1.541E3],"tree_param":{"num_deleted":"0","num_feature":"10","num_nodes":"1","size_leaf_vector":"0"}},{"base_weights":[2.7840408E2],"categories":[],"categories_nodes":[],"categories_segments":[],"categories_sizes":[],"default_left":[0],"id":3,"left_children":[-1],"loss_changes":[0E0],"parents":[2147483647],"right_children":[-1],"split_conditions":[2.7840408E1],"split_indices":[0],"split_type":[0],"sum_hessian":[1.541E3],"tree_param":{"num_deleted":"0","num_feature":"10","num_nodes":"1","size_leaf_vector":"0"}},{"base_weights":[2.5058176E2],"categories":[],"categories_nodes":[],"categories_segments":[],"categories_sizes":[],"default_left":[0],"id":4,"left_children":[-1],"loss_changes":[0E0],"parents":[2147483647],"right_children":[-1],"split_conditions":[2.5058176E1],"split_indices":[0],"split_type":[0],"sum_hessian":[1.541E3],"tree_param":{"num_deleted":"0","num_feature":"10","num_nodes":"1","size_leaf_vector":"0"}},{"base_weights":[2.2553983E2],"categories":[],"categories_nodes":[],"categories_segments":[],"categories_sizes":[],"default_left":[0],"id":5,"left_children":[-1],"loss_changes":[0E0],"parents":[2147483647],"right_children":[-1],"split_conditions":[2.2553984E1],"split_indices":[0],"split_type":[0],"sum_hessian":[1.541E3],"tree_param":{"num_deleted":"0","num_feature":"10","num_nodes":"1","size_leaf_vector":"0"}},{"base_weights":[2.0300046E2],"categories":[],"categories_nodes":[],"categories_segments":[],"categories_sizes":[],"default_left":[0],"id":6,"left_children":[-1],"loss_changes":[0E0],"parents":[2147483647],"right_children":[-1],"split_conditions":[2.0300047E1],"split_indices":[0],"split_type":[0],"sum_hessian":[1.541E3],"tree_param":{"num_deleted":"0","num_feature":"10","num_nodes":"1","size_leaf_vector":"0"}},{"base_weights":[1.8271358E2],"categories":[],"categories_nodes":[],"categories_segments":[],"categories_sizes":[],"default_left":[0],"id":7,"left_children":[-1],"loss_changes":[0E0],"parents":[2147483647],"right_children":[-1],"split_conditions":[1.8271358E1],"split_indices":[0],"split_type":[0],"sum_hessian":[1.541E3],"tree_param":{"num_deleted":"0","num_feature":"10","num_nodes":"1","size_leaf_vector":"0"}},{"base_weights":[1.6445406E2,1.6876144E2,1.6016202E2],"categories":[],"categories_nodes":[],"categories_segments":[],"categories_sizes":[],"default_left":[1,0,0],"id":8,"left_children":[1,-1,-1],"loss_changes":[1.476E3,0E0,0E0],"parents":[2147483647,0,0],"right_children":[2,-1,-1],"split_conditions":[6.5E0,1.6876144E1,1.6016203E1],"split_indices":[8,0,0],"split_type":[0,0,0],"sum_hessian":[1.541E3,7.5E2,7.91E2],"tree_param":{"num_deleted":"0","num_feature":"10","num_nodes":"3","size_leaf_vector":"0"}},{"base_weights":[1.4802998E2,1.5190778E2,1.4416603E2],"categories":[],"categories_nodes":[],"categories_segments":[],"categories_sizes":[],"default_left":[1,0,0],"id":9,"left_children":[1,-1,-1],"loss_changes":[1.204E3,0E0,0E0],"parents":[2147483647,0,0],"right_children":[2,-1,-1],"split_conditions":[6.5E0,1.5190778E1,1.4416603E1],"split_indices":[8,0,0],"split_type":[0,0,0],"sum_hessian":[1.541E3,7.5E2,7.91E2],"tree_param":{"num_deleted":"0","num_feature":"10","num_nodes":"3","size_leaf_vector":"0"}},{"base_weights":[1.3324619E2,1.3673723E2,1.2976762E2],"categories":[],"categories_nodes":[],"categories_segments":[],"categories_sizes":[],"default_left":[1,0,0],"id":10,"left_children":[1,-1,-1],"loss_changes":[9.8E2,0E0,0E0],"parents":[2147483647,0,0],"right_children":[2,-1,-1],"split_conditions":[6.5E0,1.3673723E1,1.2976763E1],"split_indices":[8,0,0],"split_type":[0,0,0],"sum_hessian":[1.541E3,7.5E2,7.91E2],"tree_param":{"num_deleted":"0","num_feature":"10","num_nodes":"3","size_leaf_vector":"0"}},{"base_weights":[1.1993884E2,1.2308171E2,1.16807236E2],"categories":[],"categories_nodes":[],"categories_segments":[],"categories_sizes":[],"default_left":[1,0,0],"id":11,"left_children":[1,-1,-1],"loss_changes":[8E2,0E0,0E0],"parents":[2147483647,0,0],"right_children":[2,-1,-1],"split_conditions":[6.5E0,1.2308171E1,1.1680724E1],"split_indices":[8,0,0],"split_type":[0,0,0],"sum_hessian":[1.541E3,7.5E2,7.91E2],"tree_param":{"num_deleted":"0","num_feature":"10","num_nodes":"3","size_leaf_vector":"0"}},{"base_weights":[1.0796052E2,1.1078993E2,1.0514126E2],"categories":[],"categories_nodes":[],"categories_segments":[],"categories_sizes":[],"default_left":[1,0,0],"id":12,"left_children":[1,-1,-1],"loss_changes":[6.52E2,0E0,0E0],"parents":[2147483647,0,0],"right_children":[2,-1,-1],"split_conditions":[6.5E0,1.1078994E1,1.0514126E1],"split_indices":[8,0,0],"split_type":[0,0,0],"sum_hessian":[1.541E3,7.5E2,7.91E2],"tree_param":{"num_deleted":"0","num_feature":"10","num_nodes":"3","size_leaf_vector":"0"}},{"base_weights":[9.7178474E1,9.97257E1,9.46404E1],"categories":[],"categories_nodes":[],"categories_segments":[],"categories_sizes":[],"default_left":[1,0,0],"id":13,"left_children":[1,-1,-1],"loss_changes":[5.31E2,0E0,0E0],"parents":[2147483647,0,0],"right_children":[2,-1,-1],"split_conditions":[6.5E0,9.97257E0,9.464041E0],"split_indices":[8,0,0],"split_type":[0,0,0],"sum_hessian":[1.541E3,7.5E2,7.91E2],"tree_param":{"num_deleted":"0","num_feature":"10","num_nodes":"3","size_leaf_vector":"0"}},{"base_weights":[8.747323E1,8.976642E1,8.51883E1,7.904946E1,8.6689896E1],"categories":[],"categories_nodes":[],"categories_segments":[],"categories_sizes":[],"default_left":[1,0,1,0,0],"id":14,"left_children":[1,-1,3,-1,-1],"loss_changes":[4.33E2,0E0,4.48E2,0E0,0E0],"parents":[2147483647,0,0,2,2],"right_children":[2,-1,4,-1,-1],"split_conditions":[6.5E0,8.976642E0,8.5E0,7.9049463E0,8.66899E0],"split_indices":[8,0,8,0,0],"split_type":[0,0,0,0,0],"sum_hessian":[1.541E3,7.5E2,7.91E2,1.66E2,6.25E2],"tree_param":{"num_deleted":"0","num_feature":"10","num_nodes":"5","size_leaf_vector":"0"}},{"base_weights":[7.874248E1,8.080172E1,7.6690414E1,7.383682E1,7.97776E1],"categories":[],"categories_nodes":[],"categories_segments":[],"categories_sizes":[],"default_left":[1,0,1,0,0],"id":15,"left_children":[1,-1,3,-1,-1],"loss_changes":[3.19E2,0E0,1.087E3,0E0,0E0],"parents":[2147483647,0,0,2,2],"right_children":[2,-1,4,-1,-1],"split_conditions":[6.5E0,8.080173E0,1.05E1,7.3836823E0,7.9777603E0],"split_indices":[8,0,8,0,0],"split_type":[0,0,0,0,0],"sum_hessian":[1.541E3,7.5E2,7.91E2,4.24E2,3.67E2],"tree_param":{"num_deleted":"0","num_feature":"10","num_nodes":"5","size_leaf_vector":"0"}},{"base_weights":[7.088344E1,7.273231E1,6.904078E1,6.647053E1,7.1821526E1],"categories":[],"categories_nodes":[],"categories_segments":[],"categories_sizes":[],"default_left":[1,0,1,0,0],"id":16,"left_children":[1,-1,3,-1,-1],"loss_changes":[2.32E2,0E0,8.8675E2,0E0,0E0],"parents":[2147483647,0,0,2,2],"right_children":[2,-1,4,-1,-1],"split_conditions":[6.5E0,7.273231E0,1.05E1,6.647053E0,7.1821527E0],"split_indices":[8,0,8,0,0],"split_type":[0,0,0,0,0],"sum_hessian":[1.541E3,7.5E2,7.91E2,4.24E2,3.67E2],"tree_param":{"num_deleted":"0","num_feature":"10","num_nodes":"5","size_leaf_vector":"0"}},{"base_weights":[6.3808777E1,6.5468765E1,6.2154152E1,5.7245144E1,6.3364456E1,5.994687E1,6.564403E1],"categories":[],"categories_nodes":[],"categories_segments":[],"categories_sizes":[],"default_left":[1,0,1,0,1,0,0],"id":17,"left_children":[1,-1,3,-1,5,-1,-1],"loss_changes":[1.67E2,0E0,1.07825E3,0E0,9.4175E2,0E0,0E0],"parents":[2147483647,0,0,2,2,4,4],"right_children":[2,-1,4,-1,6,-1,-1],"split_conditions":[6.5E0,6.5468764E0,8.5E0,5.7245145E0,1.3165E2,5.994687E0,6.564403E0],"split_indices":[8,0,8,0,0,0,0],"split_type":[0,0,0,0,0,0,0],"sum_hessian":[1.541E3,7.5E2,7.91E2,1.66E2,6.25E2,2.61E2,3.64E2],"tree_param":{"num_deleted":"0","num_feature":"10","num_nodes":"7","size_leaf_vector":"0"}},{"base_weights":[5.7444004E1,4.8609394E1,5.767105E1],"categories":[],"categories_nodes":[],"categories_segments":[],"categories_sizes":[],"default_left":[1,0,0],"id":18,"left_children":[1,-1,-1],"loss_changes":[2.9E2,0E0,0E0],"parents":[2147483647,0,0],"right_children":[2,-1,-1],"split_conditions":[6.928017E1,4.8609395E0,5.767105E0],"split_indices":[5,0,0],"split_type":[0,0,0],"sum_hessian":[1.541E3,4.4E1,1.497E3],"tree_param":{"num_deleted":"0","num_feature":"10","num_nodes":"3","size_leaf_vector":"0"}},{"base_weights":[5.1706505E1,5.3197746E1,5.022718E1,4.805056E1,5.2604454E1,4.8285828E1,5.5134575E1],"categories":[],"categories_nodes":[],"categories_segments":[],"categories_sizes":[],"default_left":[1,0,1,0,1,0,0],"id":19,"left_children":[1,-1,3,-1,5,-1,-1],"loss_changes":[7.2975E2,0E0,1.5705E3,0E0,1.3588125E3,0E0,0E0],"parents":[2147483647,0,0,2,2,4,4],"right_children":[2,-1,4,-1,6,-1,-1],"split_conditions":[6.5E0,5.3197746E0,1.05E1,4.805056E0,1.3165E2,4.828583E0,5.513458E0],"split_indices":[8,0,8,0,0,0,0],"split_type":[0,0,0,0,0,0,0],"sum_hessian":[1.541E3,7.5E2,7.91E2,4.24E2,3.67E2,1.43E2,2.24E2],"tree_param":{"num_deleted":"0","num_feature":"10","num_nodes":"7","size_leaf_vector":"0"}},{"base_weights":[4.6549133E1,4.7303017E1,4.398853E1],"categories":[],"categories_nodes":[],"categories_segments":[],"categories_sizes":[],"default_left":[1,0,0],"id":20,"left_children":[1,-1,-1],"loss_changes":[8.96E2,0E0,0E0],"parents":[2147483647,0,0],"right_children":[2,-1,-1],"split_conditions":[3.54E1,4.730302E0,4.398853E0],"split_indices":[2,0,0],"split_type":[0,0,0],"sum_hessian":[1.541E3,1.177E3,3.64E2],"tree_param":{"num_deleted":"0","num_feature":"10","num_nodes":"3","size_leaf_vector":"0"}},{"base_weights":[4.1900127E1,3.785331E1,4.233153E1,4.362012E1,4.107017E1,3.660899E1,4.2060814E1,3.931375E1,4.389777E1,4.491571E1,3.7951473E1],"categories":[],"categories_nodes":[],"categories_segments":[],"categories_sizes":[],"default_left":[1,0,1,0,1,0,1,0,1,0,0],"id":21,"left_children":[1,-1,3,-1,5,-1,7,-1,9,-1,-1],"loss_changes":[1.08975E3,0E0,4.595E2,0E0,1.628875E3,0E0,1.2010625E3,0E0,3.47375E2,0E0,0E0],"parents":[2147483647,0,0,2,2,4,4,6,6,8,8],"right_children":[2,-1,4,-1,6,-1,8,-1,10,-1,-1],"split_conditions":[8.304242E1,3.785331E0,6.5E0,4.3620124E0,8.5E0,3.660899E0,1.3165E2,3.9313753E0,3.4821686E2,4.491571E0,3.7951474E0],"split_indices":[5,0,8,0,8,0,0,0,3,0,0],"split_type":[0,0,0,0,0,0,0,0,0,0,0],"sum_hessian":[1.541E3,1.57E2,1.384E3,6.68E2,7.16E2,1.37E2,5.79E2,2.41E2,3.38E2,2.83E2,5.5E1],"tree_param":{"num_deleted":"0","num_feature":"10","num_nodes":"11","size_leaf_vector":"0"}},{"base_weights":[3.77257E1,3.0517088E1,3.791213E1,3.908981E1,3.6749428E1,3.4942955E1,3.8725266E1,3.511051E1,4.090219E1],"categories":[],"categories_nodes":[],"categories_segments":[],"categories_sizes":[],"default_left":[1,0,1,0,1,0,1,0,0],"id":22,"left_children":[1,-1,3,-1,5,-1,7,-1,-1],"loss_changes":[9.155E2,0E0,6.16E2,0E0,1.39875E3,0E0,1.3889375E3,0E0,0E0],"parents":[2147483647,0,0,2,2,4,4,6,6],"right_children":[2,-1,4,-1,6,-1,8,-1,-1],"split_conditions":[6.873607E1,3.051709E0,6.5E0,3.908981E0,1.05E1,3.4942956E0,1.3165E2,3.5110512E0,4.090219E0],"split_indices":[5,0,8,0,8,0,0,0,0],"split_type":[0,0,0,0,0,0,0,0,0],"sum_hessian":[1.541E3,4.3E1,1.498E3,7.28E2,7.7E2,4.12E2,3.58E2,1.41E2,2.17E2],"tree_param":{"num_deleted":"0","num_feature":"10","num_nodes":"9","size_leaf_vector":"0"}},{"base_weights":[3.396485E1,3.445899E1,3.1311094E1,3.0749514E1,3.4788998E1,2.6553156E1,3.2380905E1,2.457324E1,3.1879927E1],"categories":[],"categories_nodes":[],"categories_segments":[],"categories_sizes":[],"default_left":[1,1,1,1,0,0,0,0,0],"id":23,"left_children":[1,3,5,7,-1,-1,-1,-1,-1],"loss_changes":[9.43125E2,5.095E2,4.2798438E2,1.25234375E1,0E0,0E0,0E0,0E0,0E0],"parents":[2147483647,0,0,1,1,2,2,3,3],"right_children":[2,4,6,8,-1,-1,-1,-1,-1],"split_conditions":[3.5845E1,3.430406E2,9.2549545E1,3.5E0,3.4788997E0,2.6553156E0,3.2380905E0,2.457324E0,3.1879928E0],"split_indices":[2,3,5,7,0,0,0,0,0],"split_type":[0,0,0,0,0,0,0,0,0],"sum_hessian":[1.541E3,1.289E3,2.52E2,1.13E2,1.176E3,5.1E1,2.01E2,2.1E1,9.2E1],"tree_param":{"num_deleted":"0","num_feature":"10","num_nodes":"9","size_leaf_vector":"0"}},{"base_weights":[3.0578094E1,2.735909E1,3.0923239E1,3.1800001E1,2.9550694E1,2.3423048E1,3.2009205E1,3.0544186E1,3.3011402E1,3.458856E1,3.1286434E1,3.325457E1,2.888467E1],"categories":[],"categories_nodes":[],"categories_segments":[],"categories_sizes":[],"default_left":[1,0,1,1,0,0,1,0,1,0,1,0,0],"id":24,"left_children":[1,-1,3,5,-1,-1,7,-1,9,-1,11,-1,-1],"loss_changes":[8.67125E2,0E0,7.27125E2,7.0825E2,0E0,0E0,1.795625E2,0E0,1.910625E2,0E0,1.455625E2,0E0,0E0],"parents":[2147483647,0,0,2,2,3,3,6,6,8,8,10,10],"right_children":[2,-1,4,6,-1,-1,8,-1,10,-1,12,-1,-1],"split_conditions":[8.304242E1,2.7359092E0,3.4445E1,3.430435E2,2.9550693E0,2.342305E0,1.25E1,3.0544186E0,1.85E1,3.4588559E0,3.4626337E2,3.325457E0,2.888467E0],"split_indices":[5,0,2,3,0,0,7,0,7,0,3,0,0],"split_type":[0,0,0,0,0,0,0,0,0,0,0,0,0],"sum_hessian":[1.541E3,1.57E2,1.384E3,8.31E2,5.53E2,2.3E1,8.08E2,3.41E2,4.67E2,2.34E2,2.33E2,1.21E2,1.12E2],"tree_param":{"num_deleted":"0","num_feature":"10","num_nodes":"13","size_leaf_vector":"0"}},{"base_weights":[2.7533747E1,2.8600218E1,2.6487719E1,2.884367E1,2.3122692E1,2.3171259E1,2.7330149E1,2.481876E1,2.0652765E1,2.5086054E1,2.862379E1,1.1989136E1,2.5202728E1,1.0885056E1,2.8733173E1,2.9397945E1,2.4847713E1],"categories":[],"categories_nodes":[],"categories_segments":[],"categories_sizes":[],"default_left":[1,1,1,0,0,1,1,0,0,1,1,0,0,0,1,0,0],"id":25,"left_children":[1,3,5,-1,-1,7,9,-1,-1,11,13,-1,-1,-1,15,-1,-1],"loss_changes":[9.6275E2,3.345E2,1.5794375E3,0E0,0E0,1.8034375E2,1.0992812E3,0E0,0E0,5.9984375E1,4.4396875E2,0E0,0E0,0E0,2.69125E2,0E0,0E0],"parents":[2147483647,0,0,1,1,2,2,5,5,6,6,9,9,10,10,14,14],"right_children":[2,4,6,-1,-1,8,10,-1,-1,12,14,-1,-1,-1,16,-1,-1],"split_conditions":[6.5E0,3.5097342E2,8.5E0,2.884367E0,2.3122692E0,6.097E0,1.3125E2,2.4818761E0,2.0652766E0,6.515663E1,3.406087E2,1.1989136E0,2.520273E0,1.0885056E0,3.4821686E2,2.9397945E0,2.4847715E0],"split_indices":[8,3,8,0,0,1,0,0,0,5,3,0,0,0,3,0,0],"split_type":[0,0,0,0,0,0,0,0,0,0,0,0,0,0,0,0,0],"sum_hessian":[1.541E3,7.5E2,7.91E2,7.14E2,3.6E1,1.66E2,6.25E2,9.5E1,7.1E1,2.36E2,3.89E2,3E0,2.33E2,3E0,3.86E2,3.24E2,6.2E1],"tree_param":{"num_deleted":"0","num_feature":"10","num_nodes":"17","size_leaf_vector":"0"}},{"base_weights":[2.479333E1,2.1974482E1,2.5097E1,2.3194475E1,1.9195337E1,2.5309381E1,2.1049927E1,2.6219854E1,2.443122E1,2.5005865E1,2.7150234E1,2.104708E1,2.5243294E1,1.6420435E1,2.2075493E1,2.4126898E1,2.7138796E1],"categories":[],"categories_nodes":[],"categories_segments":[],"categories_sizes":[],"default_left":[1,1,1,0,0,1,0,1,1,0,0,1,1,0,0,0,0],"id":26,"left_children":[1,3,5,-1,-1,7,-1,9,11,-1,-1,13,15,-1,-1,-1,-1],"loss_changes":[7.68375E2,9.046875E1,6.576875E2,0E0,0E0,4.07625E2,0E0,3.26875E1,1.343E3,0E0,0E0,2.94125E2,4.985E2,0E0,0E0,0E0,0E0],"parents":[2147483647,0,0,1,1,2,2,5,5,7,7,8,8,11,11,12,12],"right_children":[2,4,6,-1,-1,8,-1,10,12,-1,-1,14,16,-1,-1,-1,-1],"split_conditions":[8.304242E1,6.1584997E0,3.5045834E2,2.3194475E0,1.9195337E0,6.5E0,2.1049926E0,1.2995E2,8.5E0,2.5005865E0,2.7150235E0,3.5E0,1.339E2,1.6420435E0,2.2075493E0,2.41269E0,2.7138796E0],"split_indices":[5,1,3,0,0,8,0,0,8,0,0,7,0,0,0,0,0],"split_type":[0,0,0,0,0,0,0,0,0,0,0,0,0,0,0,0,0],"sum_hessian":[1.541E3,1.57E2,1.384E3,1.04E2,5.3E1,1.31E3,7.4E1,6.29E2,6.81E2,2.85E2,3.44E2,1.37E2,5.44E2,2.8E1,1.09E2,3.51E2,1.93E2],"tree_param":{"num_deleted":"0","num_feature":"10","num_nodes":"17","size_leaf_vector":"0"}},{"base_weights":[2.2327316E1,2.2855965E1,2.0897945E1,2.162212E1,2.355381E1,1.4435005E1,2.1097725E1,1.745576E1,2.2094198E1,2.5759937E1,2.2695112E1,8.629036E0,1.7861465E1,1.7223991E1,2.232394E1,2.261807E1,2.6849142E1,2.2653585E1,1.8063591E1],"categories":[],"categories_nodes":[],"categories_segments":[],"categories_sizes":[],"default_left":[1,1,1,1,1,0,0,1,1,1,0,0,0,0,1,0,0,0,0],"id":27,"left_children":[1,3,5,7,9,-1,-1,11,13,15,-1,-1,-1,-1,17,-1,-1,-1,-1],"loss_changes":[6.875625E2,4.5075E2,2.4807812E2,4.305625E2,7.43375E2,0E0,0E0,1.4181641E1,2.8359375E1,3.9507812E1,0E0,0E0,0E0,0E0,8.09375E1,0E0,0E0,0E0,0E0],"parents":[2147483647,0,0,1,1,2,2,3,3,4,4,7,7,8,8,9,9,14,14],"right_children":[2,4,6,8,10,-1,-1,12,14,16,-1,-1,-1,-1,18,-1,-1,-1,-1],"split_conditions":[3.5145E1,1.25E1,6.688611E1,3.430583E2,1.65E1,1.4435005E0,2.1097724E0,3.406087E2,-2.55E1,3.4523367E2,2.2695112E0,8.629036E-1,1.7861465E0,1.7223991E0,1.05E1,2.2618072E0,2.6849144E0,2.2653587E0,1.8063592E0],"split_indices":[2,7,5,3,7,0,0,3,4,3,0,0,0,0,7,0,0,0,0],"split_type":[0,0,0,0,0,0,0,0,0,0,0,0,0,0,0,0,0,0,0],"sum_hessian":[1.541E3,1.114E3,4.27E2,4.14E2,7E2,1.5E1,4.12E2,4.6E1,3.68E2,1.88E2,5.12E2,3E0,4.3E1,2E1,3.48E2,5.4E1,1.34E2,3.19E2,2.9E1],"tree_param":{"num_deleted":"0","num_feature":"10","num_nodes":"19","size_leaf_vector":"0"}},{"base_weights":[2.010705E1,2.0947931E1,1.9284311E1,2.1136513E1,1.6737555E1,1.6715643E1,1.9938757E1,1.7586916E1,2.1287907E1,1.8132282E1,1.459463E1,1.8168371E1,2.0963482E1,1.3446455E1,1.8704203E1,7.3088226E0,1.4805479E1,1.3343129E1,1.8457333E1,2.2181704E1,1.9273586E1,1.2767255E1,1.9641102E1],"categories":[],"categories_nodes":[],"categories_segments":[],"categories_sizes":[],"default_left":[1,1,1,1,0,1,1,0,0,1,1,1,1,0,0,0,0,0,0,0,1,0,0],"id":28,"left_children":[1,3,5,7,-1,9,11,-1,-1,13,15,17,19,-1,-1,-1,-1,-1,-1,-1,21,-1,-1],"loss_changes":[6.62875E2,2.425E2,9.9809375E2,9.84375E0,0E0,2.3715234E2,7.5478125E2,0E0,0E0,5.767578E0,2.3964844E0,8.4171875E1,3.75375E2,0E0,0E0,0E0,0E0,0E0,0E0,0E0,1.58125E2,0E0,0E0],"parents":[2147483647,0,0,1,1,2,2,3,3,5,5,6,6,9,9,10,10,11,11,12,12,20,20],"right_children":[2,4,6,8,-1,10,12,-1,-1,14,16,18,20,-1,-1,-1,-1,-1,-1,-1,22,-1,-1],"split_conditions":[6.5E0,3.5097342E2,8.5E0,-2.55E1,1.6737555E0,6.097E0,1.3125E2,1.7586917E0,2.1287906E0,3.5E0,6.3987274E1,7.7554306E1,6.116E0,1.3446455E0,1.8704203E0,7.308823E-1,1.4805479E0,1.3343129E0,1.8457333E0,2.2181704E0,7.669948E1,1.2767255E0,1.9641103E0],"split_indices":[8,3,8,4,0,1,0,0,0,7,5,5,1,0,0,0,0,0,0,0,5,0,0],"split_type":[0,0,0,0,0,0,0,0,0,0,0,0,0,0,0,0,0,0,0,0,0,0,0],"sum_hessian":[1.541E3,7.5E2,7.91E2,7.14E2,3.6E1,1.66E2,6.25E2,3.4E1,6.8E2,9.5E1,7.1E1,2.36E2,3.89E2,1.3E1,8.2E1,3E0,6.8E1,1.6E1,2.2E2,2.19E2,1.7E2,1.1E1,1.59E2],"tree_param":{"num_deleted":"0","num_feature":"10","num_nodes":"23","size_leaf_vector":"0"}},{"base_weights":[1.8109074E1,1.5862256E1,1.8352316E1,1.3994834E1,1.692252E1,1.8525566E1,1.5079177E1,1.4495566E1,8.740353E0,1.724111E1,1.88995E1,1.4785934E1,7.0242996E0,1.2026155E1,1.7486517E1,1.9643032E1,1.7790632E1,1.51831455E1,7.936072E0,1.7791676E1,1.2462015E1,2.0911829E1,1.9064844E1,1.792256E1,1.0276445E1,2.1932314E1,1.8148975E1,1.7892982E1,2.0338295E1,1.6903095E1,2.1827183E1],"categories":[],"categories_nodes":[],"categories_segments":[],"categories_sizes":[],"default_left":[1,1,1,1,0,1,0,1,0,1,1,1,0,0,1,1,0,0,0,1,0,1,1,0,0,0,0,1,0,0,0],"id":29,"left_children":[1,3,5,7,-1,9,-1,11,-1,13,15,17,-1,-1,19,21,-1,-1,-1,23,-1,25,27,-1,-1,-1,-1,29,-1,-1,-1],"loss_changes":[5.51625E2,7.600781E1,5.060625E2,3.9061523E1,0E0,3.0384375E2,0E0,1.7626953E1,0E0,1.8259375E2,4.79125E2,2.3710938E1,0E0,0E0,2.2446875E2,3.5609375E1,0E0,0E0,0E0,8.3359375E1,0E0,9.535156E1,2.59875E2,0E0,0E0,0E0,0E0,5.111953E2,0E0,0E0,0E0],"parents":[2147483647,0,0,1,1,2,2,3,3,5,5,7,7,9,9,10,10,11,11,14,14,15,15,19,19,21,21,22,22,27,27],"right_children":[2,4,6,8,-1,10,-1,12,-1,14,16,18,-1,-1,20,22,-1,-1,-1,24,-1,26,28,-1,-1,-1,-1,30,-1,-1,-1],"split_conditions":[8.304242E1,1.3E1,3.5045834E2,1.05E1,1.692252E0,5.5E0,1.5079178E0,1.15E1,8.740353E-1,3.4301425E2,3.4445E1,3.7185E1,7.0242995E-1,1.2026156E0,1.15E1,3.5E0,1.7790632E0,1.5183146E0,7.936072E-1,3.752E1,1.2462015E0,2.65E1,1.05E1,1.792256E0,1.0276445E0,2.1932313E0,1.8148975E0,3.4828873E2,2.0338295E0,1.6903095E0,2.1827183E0],"split_indices":[5,7,3,7,0,7,0,8,0,3,2,2,0,0,8,8,0,0,0,2,0,7,8,0,0,0,0,3,0,0,0],"split_type":[0,0,0,0,0,0,0,0,0,0,0,0,0,0,0,0,0,0,0,0,0,0,0,0,0,0,0,0,0,0,0],"sum_hessian":[1.541E3,1.57E2,1.384E3,6.2E1,9.5E1,1.31E3,7.4E1,5.5E1,7E0,3.06E2,1.004E3,5.2E1,3E0,1.6E1,2.9E2,5.91E2,4.13E2,4.8E1,4E0,2.71E2,1.9E1,1.74E2,4.17E2,2.65E2,6E0,1.22E2,5.2E1,2.25E2,1.92E2,1.84E2,4.1E1],"tree_param":{"num_deleted":"0","num_feature":"10","num_nodes":"31","size_leaf_vector":"0"}},{"base_weights":[1.6313763E1,1.7032173E1,1.5611945E1,1.6716082E1,1.903892E1,1.4562521E1,1.6781492E1,1.6877722E1,1.3148148E1,2.0663782E1,1.6288137E1,1.2121389E1,1.4946072E1,1.4857339E1,1.8022778E1,1.7345003E1,1.5616534E1,1.0202361E1,1.3661625E1,1.1966166E1,1.5298688E1,1.6309675E1,1.3707895E1,9.277867E0,1.8225554E1,1.8316551E1,1.6042187E1,7.1386056E0,1.2413512E1,1.7381598E1,1.47227E1,1.4540631E1,1.8786795E1,1.2655347E1,1.65455E1,1.3849622E1,1.5942737E1,1.646201E1,1.2914742E1,1.7591314E1,1.4303856E1],"categories":[],"categories_nodes":[],"categories_segments":[],"categories_sizes":[],"default_left":[1,1,1,1,1,1,1,1,0,0,0,1,1,1,1,1,0,0,0,1,1,0,0,0,0,1,1,0,0,0,1,0,0,0,0,1,1,0,0,0,0],"id":30,"left_children":[1,3,5,7,9,11,13,15,-1,-1,-1,17,19,21,23,25,-1,-1,-1,27,29,-1,-1,-1,-1,31,33,-1,-1,-1,35,-1,-1,-1,-1,37,39,-1,-1,-1,-1],"loss_changes":[5.1159375E2,1.5810938E2,7.276875E2,1.5698438E2,8.804297E1,2.1675E2,6.1116406E2,9.746875E1,0E0,0E0,0E0,4.683203E1,1.9836719E2,2.6832031E1,2.1925781E2,2.7195312E2,0E0,0E0,0E0,4.248047E0,1.2920312E2,0E0,0E0,0E0,0E0,1.6895312E2,1.2983594E2,0E0,0E0,0E0,5.401953E1,0E0,0E0,0E0,0E0,1.7327734E2,2.1259766E1,0E0,0E0,0E0,0E0],"parents":[2147483647,0,0,1,1,2,2,3,3,4,4,5,5,6,6,7,7,11,11,12,12,13,13,14,14,15,15,19,19,20,20,25,25,26,26,30,30,35,35,36,36],"right_children":[2,4,6,8,10,12,14,16,-1,-1,-1,18,20,22,24,26,-1,-1,-1,28,30,-1,-1,-1,-1,32,34,-1,-1,-1,36,-1,-1,-1,-1,38,40,-1,-1,-1,-1],"split_conditions":[6.5E0,4.5E0,1.05E1,3.507661E2,3.4985E1,3.5E0,1.3185E2,3.5E0,1.3148148E0,2.0663784E0,1.6288137E0,3.447708E2,7.937567E1,3.4603918E2,3.4124225E2,3.4665607E2,1.5616535E0,1.0202361E0,1.3661625E0,3.4079773E2,8.486883E1,1.6309675E0,1.3707895E0,9.2778677E-1,1.8225554E0,8.622479E1,1.2835E2,7.138606E-1,1.2413512E0,1.7381598E0,2.25E1,1.4540632E0,1.8786795E0,1.2655348E0,1.65455E0,6.0188227E0,1.3175E2,1.646201E0,1.2914742E0,1.7591314E0,1.4303856E0],"split_indices":[8,8,8,3,2,7,0,8,0,0,0,3,5,3,3,3,0,0,0,3,5,0,0,0,0,5,0,0,0,0,7,0,0,0,0,1,0,0,0,0,0],"split_type":[0,0,0,0,0,0,0,0,0,0,0,0,0,0,0,0,0,0,0,0,0,0,0,0,0,0,0,0,0,0,0,0,0,0,0,0,0,0,0,0,0],"sum_hessian":[1.541E3,7.5E2,7.91E2,6.56E2,9.4E1,4.24E2,3.67E2,6.24E2,3.2E1,5.5E1,3.9E1,6.2E1,3.62E2,1.49E2,2.18E2,4.46E2,1.78E2,3.1E1,3.1E1,4.2E1,3.2E2,6E1,8.9E1,6E0,2.12E2,2.48E2,1.98E2,5E0,3.7E1,6.3E1,2.57E2,3.1E1,2.17E2,2.9E1,1.69E2,1.57E2,1E2,3.7E1,1.2E2,4.5E1,5.5E1],"tree_param":{"num_deleted":"0","num_feature":"10","num_nodes":"41","size_leaf_vector":"0"}},{"base_weights":[1.4702352E1,1.5346033E1,1.4073429E1,1.5058368E1,1.7173925E1,1.3134991E1,1.5118979E1,1.5202453E1,1.1873172E1,1.8634306E1,1.4700044E1,1.0947138E1,1.3478517E1,1.3391611E1,1.6233072E1,1.5624489E1,1.4063614E1,9.21401E0,1.2338167E1,1.0934864E1,1.3813132E1,1.4790359E1,1.2400971E1,5.8016357E0,1.6351093E1,1.6498268E1,1.445265E1,1.6620611E1,1.3560462E1,6.5437164E0,1.1301817E1,1.5900416E1,1.32741785E1,1.6730476E1,1.2783387E1,1.3132E1,1.691672E1,1.1431997E1,1.4900691E1,1.1661469E1,6.308093E0,1.5706183E1,1.2872864E1,1.4392763E1,1.743725E1,1.1640588E1,1.4034213E1,1.7617516E1,1.0568351E1],"categories":[],"categories_nodes":[],"categories_segments":[],"categories_sizes":[],"default_left":[1,1,1,1,1,1,1,1,0,0,0,1,1,1,1,1,1,0,0,1,1,0,0,0,1,1,1,0,0,0,1,0,1,0,0,0,1,0,0,0,0,0,1,0,1,0,0,0,0],"id":31,"left_children":[1,3,5,7,9,11,13,15,-1,-1,-1,17,19,21,23,25,27,-1,-1,29,31,-1,-1,-1,33,35,37,-1,-1,-1,39,-1,41,-1,-1,-1,43,-1,-1,-1,-1,-1,45,-1,47,-1,-1,-1,-1],"loss_changes":[4.0828125E2,1.3629688E2,5.785E2,1.21015625E2,6.929297E1,1.7186719E2,4.908203E2,8.065625E1,0E0,0E0,0E0,3.819873E1,1.5792188E2,2.443164E1,1.7475781E2,2.1925781E2,4.9101562E0,0E0,0E0,1.7773438E0,1.4554688E2,0E0,0E0,0E0,7.8484375E1,1.2860156E2,9.897656E1,0E0,0E0,0E0,1.8706055E0,0E0,4.9625E1,0E0,0E0,0E0,3.54375E1,0E0,0E0,0E0,0E0,0E0,1.6149219E2,0E0,3.1738281E1,0E0,0E0,0E0,0E0],"parents":[2147483647,0,0,1,1,2,2,3,3,4,4,5,5,6,6,7,7,11,11,12,12,13,13,14,14,15,15,16,16,19,19,20,20,24,24,25,25,26,26,30,30,32,32,36,36,42,42,44,44],"right_children":[2,4,6,8,10,12,14,16,-1,-1,-1,18,20,22,24,26,28,-1,-1,30,32,-1,-1,-1,34,36,38,-1,-1,-1,40,-1,42,-1,-1,-1,44,-1,-1,-1,-1,-1,46,-1,48,-1,-1,-1,-1],"split_conditions":[6.5E0,4.5E0,1.05E1,3.507661E2,3.4985E1,3.5E0,1.3185E2,3.5E0,1.1873173E0,1.8634306E0,1.4700044E0,3.447708E2,8.096074E1,3.459969E2,3.406087E2,3.4665607E2,1.05E1,9.21401E-1,1.2338167E0,3.4079773E2,8.486883E1,1.4790359E0,1.2400972E0,5.801636E-1,3.4315002E1,8.622479E1,1.2835E2,1.6620611E0,1.3560462E0,6.543717E-1,6.4700003E0,1.5900416E0,5.8780003E0,1.6730477E0,1.2783388E0,1.3132E0,-2.25E1,1.1431998E0,1.4900692E0,1.166147E0,6.308093E-1,1.5706184E0,2.15E1,1.4392763E0,1.3575E2,1.1640588E0,1.4034213E0,1.7617515E0,1.056835E0],"split_indices":[8,8,8,3,2,7,0,8,0,0,0,3,5,3,3,3,7,0,0,3,5,0,0,0,2,5,0,0,0,0,1,0,1,0,0,0,4,0,0,0,0,0,7,0,0,0,0,0,0],"split_type":[0,0,0,0,0,0,0,0,0,0,0,0,0,0,0,0,0,0,0,0,0,0,0,0,0,0,0,0,0,0,0,0,0,0,0,0,0,0,0,0,0,0,0,0,0,0,0,0,0],"sum_hessian":[1.541E3,7.5E2,7.91E2,6.56E2,9.4E1,4.24E2,3.67E2,6.24E2,3.2E1,5.5E1,3.9E1,6.2E1,3.62E2,1.49E2,2.18E2,4.46E2,1.78E2,3.1E1,3.1E1,4.6E1,3.16E2,5.6E1,9.3E1,3E0,2.15E2,2.48E2,1.98E2,2.4E1,1.54E2,5E0,4.1E1,5.9E1,2.57E2,1.91E2,2.4E1,3.1E1,2.17E2,2.9E1,1.69E2,3.7E1,4E0,3.1E1,2.26E2,4.2E1,1.75E2,1.15E2,1.11E2,1.69E2,6E0],"tree_param":{"num_deleted":"0","num_feature":"10","num_nodes":"49","size_leaf_vector":"0"}},{"base_weights":[1.3253083E1,1.3832391E1,1.2687031E1,1.3571418E1,1.549162E1,1.0927305E1,1.3136212E1,1.2423098E1,1.3934347E1,1.6804148E1,1.3266792E1,1.1998899E1,9.346745E0,1.478137E1,1.2558709E1,1.3981625E1,1.144222E1,1.403863E1,1.0200906E1,7.071493E0,9.821433E0,9.019037E0,1.2762537E1,1.2027746E1,9.599856E0,1.4251585E1,1.2153298E1,3.994165E0,9.663251E0,1.2980048E1,9.948937E0,1.46364975E1,1.2796035E1,6.9983926E0,1.1257182E1,9.798431E0,1.3119154E1,1.1867273E1,1.4897545E1,1.319864E1,8.314236E0,1.5828238E1,1.3715449E1],"categories":[],"categories_nodes":[],"categories_segments":[],"categories_sizes":[],"default_left":[1,1,1,1,1,1,1,1,1,0,0,0,1,0,1,0,1,1,0,0,0,1,1,0,0,1,0,0,1,1,0,1,0,0,0,0,1,0,1,0,0,0,0],"id":32,"left_children":[1,3,5,7,9,11,13,15,17,-1,-1,-1,19,-1,21,-1,23,25,-1,-1,-1,27,29,-1,-1,31,-1,-1,33,35,-1,37,-1,-1,-1,-1,39,-1,41,-1,-1,-1,-1],"loss_changes":[3.3015625E2,1.14953125E2,4.8246875E2,1.00703125E2,5.4476562E1,1.7069922E2,4.09125E2,9.531641E1,4.7953125E1,0E0,0E0,0E0,8.310059E0,0E0,2.2398438E2,0E0,1.0410156E0,1.7507812E1,0E0,0E0,0E0,5.527881E1,1.4135938E2,0E0,0E0,4.8578125E1,0E0,0E0,2.7408203E1,5.1585938E1,0E0,5.8875E1,0E0,0E0,0E0,0E0,3.8070312E1,0E0,1.0635547E2,0E0,0E0,0E0,0E0],"parents":[2147483647,0,0,1,1,2,2,3,3,4,4,5,5,6,6,7,7,8,8,12,12,14,14,16,16,17,17,21,21,22,22,25,25,28,28,29,29,31,31,36,36,38,38],"right_children":[2,4,6,8,10,12,14,16,18,-1,-1,-1,20,-1,22,-1,24,26,-1,-1,-1,28,30,-1,-1,32,-1,-1,34,36,-1,38,-1,-1,-1,-1,40,-1,42,-1,-1,-1,-1],"split_conditions":[6.5E0,4.5E0,8.5E0,1.283E2,3.4985E1,6.097E0,3.2625E1,3.444041E2,3.507661E2,1.6804148E0,1.3266792E0,1.19989E0,3.5E0,1.478137E0,7.7554306E1,1.3981625E0,1.27649994E2,1.3415E2,1.0200906E0,7.071493E-1,9.8214334E-1,6.052E0,3.5035458E2,1.2027746E0,9.599857E-1,3.5E0,1.2153299E0,3.994165E-1,8E0,6E0,9.948937E-1,8.622479E1,1.2796035E0,6.998393E-1,1.1257182E0,9.7984314E-1,6.58E0,1.1867274E0,3.467669E2,1.319864E0,8.314236E-1,1.5828238E0,1.371545E0],"split_indices":[8,8,8,0,2,1,2,3,3,0,0,0,7,0,5,0,0,0,0,0,0,1,3,0,0,8,0,0,7,1,0,5,0,0,0,0,1,0,3,0,0,0,0],"split_type":[0,0,0,0,0,0,0,0,0,0,0,0,0,0,0,0,0,0,0,0,0,0,0,0,0,0,0,0,0,0,0,0,0,0,0,0,0,0,0,0,0,0,0],"sum_hessian":[1.541E3,7.5E2,7.91E2,6.56E2,9.4E1,1.66E2,6.25E2,1.66E2,4.9E2,5.5E1,3.9E1,9.5E1,7.1E1,1.56E2,4.69E2,5.9E1,1.07E2,4.74E2,1.6E1,1.5E1,5.6E1,2.8E1,4.41E2,7.7E1,3E1,4.2E2,5.4E1,4E0,2.4E1,4.06E2,3.5E1,3.25E2,9.5E1,1.1E1,1.3E1,2E1,3.86E2,3.2E1,2.93E2,3.78E2,8E0,1.57E2,1.36E2],"tree_param":{"num_deleted":"0","num_feature":"10","num_nodes":"43","size_leaf_vector":"0"}},{"base_weights":[1.1943949E1,1.2170646E1,1.0740852E1,1.0768703E1,1.2323839E1,8.453372E0,1.133357E1,6.474326E0,1.0918253E1,1.066601E1,1.2427363E1,9.397873E0,1.1764139E1,2.839035E0,1.0959192E1,1.0913946E1,6.6983557E0,1.2913976E1,1.2002779E1,1.1937049E1,7.5751953E0,9.260166E0,1.2019393E1,1.2120249E1,1.3642827E1,1.2707056E1,1.1298404E1,1.0385248E1,1.2609097E1,1.2259735E1,5.6462445E0,1.069684E1,1.399917E1,1.4100236E1,1.1891002E1,8.586325E0,1.1783972E1,9.410454E0,1.3062851E1,8.121924E0,1.2462711E1,1.4183242E1,8.1487055E0,1.2872062E1,1.0629889E1,6.3463564E0,9.281136E0,1.256288E1,1.0893878E1,1.2826398E1,9.70338E0,1.32564335E1,1.0906014E1,8.886404E0,1.1532241E1,6.7141004E0,9.864852E0],"categories":[],"categories_nodes":[],"categories_segments":[],"categories_sizes":[],"default_left":[1,1,1,1,1,0,1,0,1,1,1,0,1,0,0,1,0,1,1,1,0,0,0,1,1,1,1,0,1,1,0,0,1,0,1,1,1,0,0,0,0,0,0,0,1,0,0,1,1,0,0,0,0,1,0,0,0],"id":33,"left_children":[1,3,5,7,9,-1,11,-1,13,15,17,-1,19,-1,-1,21,-1,23,25,27,-1,-1,-1,29,31,33,35,-1,37,39,-1,-1,41,-1,43,45,47,-1,-1,-1,-1,-1,-1,-1,49,-1,-1,51,53,-1,-1,-1,-1,55,-1,-1,-1],"loss_changes":[2.8982812E2,1.4434375E2,2.472168E2,1.6010742E1,6.584375E1,0E0,5.4466797E1,0E0,1.1553711E1,6.748047E-1,6.8546875E1,0E0,2.4017578E1,0E0,0E0,1.4841797E1,0E0,1.1869531E2,1.5010156E2,2.5482422E1,0E0,0E0,0E0,1.511211E2,1.1060156E2,1.5976562E2,3.0047656E2,0E0,2.221289E1,9.866797E1,0E0,0E0,1.1919141E2,0E0,9.5771484E1,1.891626E1,4.0625E1,0E0,0E0,0E0,0E0,0E0,0E0,0E0,5.462793E1,0E0,0E0,4.8125E0,6.026953E1,0E0,0E0,0E0,0E0,8.158203E0,0E0,0E0,0E0],"parents":[2147483647,0,0,1,1,2,2,3,3,4,4,6,6,8,8,9,9,10,10,12,12,15,15,17,17,18,18,19,19,23,23,24,24,25,25,26,26,28,28,29,29,32,32,34,34,35,35,36,36,44,44,47,47,48,48,53,53],"right_children":[2,4,6,8,10,-1,12,-1,14,16,18,-1,20,-1,-1,22,-1,24,26,28,-1,-1,-1,30,32,34,36,-1,38,40,-1,-1,42,-1,44,46,48,-1,-1,-1,-1,-1,-1,-1,50,-1,-1,52,54,-1,-1,-1,-1,56,-1,-1,-1],"split_conditions":[3.5845E1,8.2173E1,9.2778824E1,2.5E0,-2.55E1,8.453372E-1,5.5E0,6.474326E-1,3.4016016E2,6.2725E0,6.0855E0,9.397873E-1,1.3295E2,2.839035E-1,1.0959193E0,6.0810003E0,6.6983557E-1,1.2E1,6.5E0,1.5E0,7.5751954E-1,9.260166E-1,1.2019393E0,1.15E1,9.1353485E1,1.5E1,8.5E0,1.0385249E0,6.3355E0,3.4304742E2,5.646245E-1,1.069684E0,3.5028812E2,1.4100236E0,3.5E0,3.4467804E2,1.35E1,9.410454E-1,1.3062851E0,8.1219244E-1,1.2462711E0,1.4183242E0,8.1487054E-1,1.2872062E0,1.2645E2,6.346356E-1,9.281136E-1,6.3050003E0,3.329E1,1.2826399E0,9.70338E-1,1.3256434E0,1.0906014E0,1.339E2,1.1532241E0,6.7141E-1,9.864852E-1],"split_indices":[2,5,5,7,4,0,7,0,3,1,1,0,0,0,0,1,0,7,8,8,0,0,0,8,5,7,8,0,1,3,0,0,3,0,8,3,6,0,0,0,0,0,0,0,0,0,0,1,2,0,0,0,0,0,0,0,0],"split_type":[0,0,0,0,0,0,0,0,0,0,0,0,0,0,0,0,0,0,0,0,0,0,0,0,0,0,0,0,0,0,0,0,0,0,0,0,0,0,0,0,0,0,0,0,0,0,0,0,0,0,0,0,0,0,0,0,0],"sum_hessian":[1.541E3,1.289E3,2.52E2,1.34E2,1.155E3,5.5E1,1.97E2,6E0,1.28E2,7.4E1,1.081E3,4E1,1.57E2,1E0,1.27E2,6.8E1,6E0,4.9E2,5.91E2,1.49E2,8E0,3.1E1,3.7E1,2.43E2,2.47E2,2.87E2,3.04E2,5E1,9.9E1,2.37E2,6E0,3E1,2.17E2,1E2,1.87E2,4.9E1,2.55E2,1.5E1,8.4E1,1.3E1,2.24E2,2.09E2,8E0,1E2,8.7E1,1.4E1,3.5E1,1.29E2,1.26E2,2.2E1,6.5E1,8.6E1,4.3E1,3.4E1,9.2E1,1.3E1,2.1E1],"tree_param":{"num_deleted":"0","num_feature":"10","num_nodes":"57","size_leaf_vector":"0"}},{"base_weights":[1.0767917E1,1.1056608E1,9.990677E0,1.0334671E1,1.1468231E1,8.751474E0,1.029475E1,8.42443E0,1.05499735E1,1.28986025E1,1.0918897E1,1.0263579E1,7.623131E0,9.3495655E0,1.0615374E1,3.5079854E0,8.564983E0,6.6986113E0,1.0638596E1,1.1025624E1,1.3643694E1,1.2214766E1,1.0629296E1,7.8748183E0,4.736346E0,9.036037E0,1.0870509E1,7.9833155E0,1.0771699E1,1.2948769E1,9.457541E0,1.1605202E1,1.0070016E1,1.0955919E1,8.424656E0,1.0343178E1,1.2881727E1,8.980167E0,1.1481684E1,1.4438463E1,1.0912463E1,6.2414947E0,9.555372E0,1.2264001E1,7.4243674E0],"categories":[],"categories_nodes":[],"categories_segments":[],"categories_sizes":[],"default_left":[1,1,1,1,1,1,1,1,1,1,1,0,1,0,1,0,0,0,1,0,0,1,1,0,0,0,0,0,1,0,0,1,0,0,0,1,1,1,1,0,0,0,0,0,0],"id":34,"left_children":[1,3,5,7,9,11,13,15,17,19,21,-1,23,-1,25,-1,-1,-1,27,-1,-1,29,31,-1,-1,-1,-1,-1,33,-1,-1,35,-1,-1,-1,37,39,41,43,-1,-1,-1,-1,-1,-1],"loss_changes":[2.3553125E2,2.128125E2,7.117578E1,8.180469E1,4.0997656E2,7.702197E1,3.1796875E0,2.432373E0,5.4679688E1,1.13328125E2,6.2691406E1,0E0,3.3898926E0,0E0,4.9414062E-1,0E0,0E0,0E0,4.088672E1,0E0,0E0,5.360742E1,1.1619141E2,0E0,0E0,0E0,0E0,0E0,5.4273438E1,0E0,0E0,1.06802734E2,0E0,0E0,0E0,2.1036133E1,5.703418E1,4.9472656E0,3.591162E1,0E0,0E0,0E0,0E0,0E0,0E0],"parents":[2147483647,0,0,1,1,2,2,3,3,4,4,5,5,6,6,7,7,8,8,9,9,10,10,12,12,14,14,18,18,21,21,22,22,28,28,31,31,35,35,36,36,37,37,38,38],"right_children":[2,4,6,8,10,12,14,16,18,20,22,-1,24,-1,26,-1,-1,-1,28,-1,-1,30,32,-1,-1,-1,-1,-1,34,-1,-1,36,-1,-1,-1,38,40,42,44,-1,-1,-1,-1,-1,-1],"split_conditions":[3.5145E1,1.25E1,9.2778824E1,3.430583E2,1.65E1,3.582E1,1.2705E2,3.4049188E2,8.0142525E1,3.4584262E2,3.219E1,1.026358E0,1.3079999E2,9.3495655E-1,4.5E0,3.5079855E-1,8.5649836E-1,6.6986114E-1,-2.55E1,1.1025624E0,1.3643694E0,3.4663202E2,3.5E0,7.8748184E-1,4.7363457E-1,9.0360373E-1,1.0870509E0,7.9833156E-1,1.05E1,1.2948769E0,9.457542E-1,2.5E0,1.0070016E0,1.0955919E0,8.424656E-1,3.479278E2,2.65E1,1.2835E2,3.5094366E2,1.4438463E0,1.0912464E0,6.241495E-1,9.5553726E-1,1.2264001E0,7.4243677E-1],"split_indices":[2,7,5,3,7,2,0,3,5,3,2,0,0,0,7,0,0,0,4,0,0,3,8,0,0,0,0,0,7,0,0,8,0,0,0,3,7,0,3,0,0,0,0,0,0],"split_type":[0,0,0,0,0,0,0,0,0,0,0,0,0,0,0,0,0,0,0,0,0,0,0,0,0,0,0,0,0,0,0,0,0,0,0,0,0,0,0,0,0,0,0,0,0],"sum_hessian":[1.541E3,1.114E3,4.27E2,4.14E2,7E2,9E1,3.37E2,4.6E1,3.68E2,1.88E2,5.12E2,3.5E1,5.5E1,9.3E1,2.44E2,2E0,4.4E1,1E1,3.58E2,5.8E1,1.3E2,8.6E1,4.26E2,4.9E1,6E0,3.9E1,2.05E2,2E1,3.38E2,6.5E1,2.1E1,1.48E2,2.78E2,3.1E2,2.8E1,7.9E1,6.9E1,4E1,3.9E1,3.5E1,3.4E1,9E0,3.1E1,3.1E1,8E0],"tree_param":{"num_deleted":"0","num_feature":"10","num_nodes":"45","size_leaf_vector":"0"}},{"base_weights":[9.705153E0,9.96567E0,9.003795E0,9.312327E0,1.033824E1,6.08811E0,9.094951E0,7.6076665E0,9.504216E0,1.1621785E1,9.845202E0,9.280204E0,7.8010707E0,3.8331757E0,7.7779007E0,6.089647E0,9.582367E0,9.941743E0,1.2289729E1,1.1019036E1,9.58298E0,7.222992E0,9.700256E0,1.1673496E1,8.5547905E0,1.048551E1,9.066636E0,9.863861E0,7.6112385E0,9.353214E0,1.1629768E1,6.8647766E0,9.183304E0,1.0376746E1,9.2590885E0,8.120682E0,1.038273E1,1.2911302E1,9.70447E0,1.0645217E1,5.772436E0,4.2232013E0,9.437117E0,9.441988E0,6.79134E0,7.336306E0,1.1285293E1,7.473971E0,1.084241E1,8.563446E0,3.6553764E0],"categories":[],"categories_nodes":[],"categories_segments":[],"categories_sizes":[],"default_left":[1,1,1,1,1,0,1,1,1,1,1,0,0,0,0,0,1,0,0,1,1,0,1,0,0,1,1,1,0,1,1,0,0,1,1,1,1,0,0,1,1,0,0,0,0,0,0,0,0,0,0],"id":35,"left_children":[1,3,5,7,9,-1,11,13,15,17,19,-1,-1,-1,-1,-1,21,-1,-1,23,25,-1,27,-1,-1,29,31,33,-1,35,37,-1,-1,39,41,43,45,-1,-1,47,49,-1,-1,-1,-1,-1,-1,-1,-1,-1,-1],"loss_changes":[1.9203125E2,1.7513281E2,5.838672E1,6.3445312E1,3.291953E2,0E0,2.6597656E1,3.857422E-1,4.011328E1,8.991016E1,5.2308594E1,0E0,0E0,0E0,0E0,0E0,2.9792969E1,0E0,0E0,4.0445312E1,1.03921875E2,0E0,4.0783203E1,0E0,0E0,8.427539E1,8.628906E0,3.8867188E-1,0E0,1.7198242E1,4.7416016E1,0E0,0E0,1.3633008E2,9.641699E1,7.8913574E0,2.7191895E1,0E0,0E0,1.2765625E1,3.369348E1,0E0,0E0,0E0,0E0,0E0,0E0,0E0,0E0,0E0,0E0],"parents":[2147483647,0,0,1,1,2,2,3,3,4,4,6,6,7,7,8,8,9,9,10,10,16,16,19,19,20,20,22,22,25,25,26,26,27,27,29,29,30,30,33,33,34,34,35,35,36,36,39,39,40,40],"right_children":[2,4,6,8,10,-1,12,14,16,18,20,-1,-1,-1,-1,-1,22,-1,-1,24,26,-1,28,-1,-1,30,32,34,-1,36,38,-1,-1,40,42,44,46,-1,-1,48,50,-1,-1,-1,-1,-1,-1,-1,-1,-1,-1],"split_conditions":[3.5145E1,1.25E1,6.688611E1,3.430583E2,1.65E1,6.08811E-1,3.503712E2,3.406087E2,8.0142525E1,3.4584262E2,3.219E1,9.280204E-1,7.801071E-1,3.8331756E-1,7.7779007E-1,6.089647E-1,-2.55E1,9.941743E-1,1.2289729E0,3.4663202E2,3.5E0,7.222992E-1,1.05E1,1.1673497E0,8.5547906E-1,2.5E0,3.2285E1,3.4603497E2,7.6112384E-1,3.479278E2,2.85E1,6.8647766E-1,9.183304E-1,6.1914997E0,1.314E2,3.463372E2,2.15E1,1.2911302E0,9.70447E-1,5.6844997E0,1.3081696E2,4.2232013E-1,9.437117E-1,9.441988E-1,6.79134E-1,7.336306E-1,1.1285293E0,7.473971E-1,1.084241E0,8.5634464E-1,3.6553764E-1],"split_indices":[2,7,5,3,7,0,3,3,5,3,2,0,0,0,0,0,4,0,0,3,8,0,7,0,0,8,2,3,0,3,7,0,0,1,0,3,7,0,0,1,0,0,0,0,0,0,0,0,0,0,0],"split_type":[0,0,0,0,0,0,0,0,0,0,0,0,0,0,0,0,0,0,0,0,0,0,0,0,0,0,0,0,0,0,0,0,0,0,0,0,0,0,0,0,0,0,0,0,0,0,0,0,0,0,0],"sum_hessian":[1.541E3,1.114E3,4.27E2,4.14E2,7E2,1.5E1,4.12E2,4.6E1,3.68E2,1.88E2,5.12E2,3.55E2,5.7E1,3E0,4.3E1,1E1,3.58E2,5.8E1,1.3E2,8.6E1,4.26E2,2E1,3.38E2,6.5E1,2.1E1,1.48E2,2.78E2,3.1E2,2.8E1,7.9E1,6.9E1,1.7E1,2.61E2,1.59E2,1.51E2,4E1,3.9E1,3.8E1,3.1E1,1.49E2,1E1,6E0,1.45E2,1.7E1,2.3E1,1.1E1,2.8E1,1.1E1,1.38E2,3E0,7E0],"tree_param":{"num_deleted":"0","num_feature":"10","num_nodes":"51","size_leaf_vector":"0"}},{"base_weights":[8.748637E0,9.161345E0,8.346249E0,8.956821E0,1.0479347E1,7.061494E0,8.675653E0,8.321235E0,9.346948E0,1.1457269E1,8.848272E0,8.303561E0,6.1885724E0,9.539967E0,8.160017E0,9.197685E0,7.8854723E0,9.5775385E0,7.7305703E0,5.207352E0,7.1839595E0,5.8013234E0,9.720811E0,5.1750984E0,8.287454E0,3.994188E0,8.043241E0,7.95116E0,9.764764E0,1.2576416E0,7.6809998E0,6.483447E0,9.913086E0,3.7198625E0,6.37871E0,8.464524E0,6.3554034E0,7.1785226E0,8.477174E0,1.0257848E1,8.951764E0,1.020402E1,8.233378E0,6.4512124E0,8.628357E0,9.146098E0,7.1923146E0,1.0853358E1,8.856161E0,2.5765076E0,1.0234264E1,4.558118E0,7.8227882E0,8.702889E0,5.1107044E0,1.1162279E1,7.039907E0,4.72355E0,1.1210327E0,6.708557E0,8.825015E0,3.267456E0,1.1203595E1,3.530342E0,7.956368E0,1.0106519E1,8.367164E0,8.0125475E0,9.885354E0],"categories":[],"categories_nodes":[],"categories_segments":[],"categories_sizes":[],"default_left":[1,1,1,1,1,1,1,1,1,0,0,0,1,1,1,0,1,1,0,0,0,1,1,1,1,0,1,0,1,0,0,0,1,0,0,1,0,0,1,1,0,1,0,1,1,0,0,1,0,0,0,1,0,1,0,1,0,0,0,1,1,0,0,0,0,0,1,0,0],"id":36,"left_children":[1,3,5,7,9,11,13,15,17,-1,-1,-1,19,21,23,-1,25,27,-1,-1,-1,29,31,33,35,-1,37,-1,39,-1,-1,-1,41,-1,-1,43,-1,-1,45,47,-1,49,-1,51,53,-1,-1,55,-1,-1,-1,57,-1,59,-1,61,-1,-1,-1,63,65,-1,-1,-1,-1,-1,67,-1,-1],"loss_changes":[1.7961719E2,1.0858203E2,2.7391406E2,8.512891E1,5.0154297E1,1.2967871E2,2.0114453E2,2.6388672E1,7.467578E1,0E0,0E0,0E0,6.221338E1,9.7759766E1,1.08884766E2,0E0,7.837988E1,2.7410156E1,0E0,0E0,0E0,1.0136853E2,7.017969E1,9.551331E0,7.655078E1,0E0,3.6855469E0,0E0,3.044336E1,0E0,0E0,0E0,1.4699219E1,0E0,0E0,5.8460938E1,0E0,0E0,2.7900879E1,5.6634766E1,0E0,1.2390625E1,0E0,4.2238403E1,3.8634766E1,0E0,0E0,6.749707E1,0E0,0E0,0E0,3.2338257E0,0E0,1.6054688E1,0E0,2.5195312E-1,0E0,0E0,0E0,5.915918E1,8.441992E1,0E0,0E0,0E0,0E0,0E0,3.8160156E1,0E0,0E0],"parents":[2147483647,0,0,1,1,2,2,3,3,4,4,5,5,6,6,7,7,8,8,12,12,13,13,14,14,16,16,17,17,21,21,22,22,23,23,24,24,26,26,28,28,32,32,35,35,38,38,39,39,41,41,43,43,44,44,47,47,51,51,53,53,55,55,59,59,60,60,66,66],"right_children":[2,4,6,8,10,12,14,16,18,-1,-1,-1,20,22,24,-1,26,28,-1,-1,-1,30,32,34,36,-1,38,-1,40,-1,-1,-1,42,-1,-1,44,-1,-1,46,48,-1,50,-1,52,54,-1,-1,56,-1,-1,-1,58,-1,60,-1,62,-1,-1,-1,64,66,-1,-1,-1,-1,-1,68,-1,-1],"split_conditions":[6.5E0,4.5E0,8.5E0,1.2995E2,3.4985E1,5.954323E0,3.3055E1,3.446359E2,1.3415E2,1.1457269E0,8.8482726E-1,8.303561E-1,1.65E1,7.771774E1,6.0905E0,9.197685E-1,3.4480096E2,3.430412E2,7.7305704E-1,5.207352E-1,7.1839595E-1,1.325E2,-2.55E1,3.4831274E2,3.5035458E2,3.994188E-1,-2.25E1,7.95116E-1,3.4683563E2,1.2576416E-1,7.6809996E-1,6.483447E-1,6.078E0,3.7198624E-1,6.3787097E-1,8.304242E1,6.3554037E-1,7.178523E-1,3.5E0,3.5E0,8.951764E-1,3.4295087E2,8.2333785E-1,8E0,6.58E0,9.1460985E-1,7.192315E-1,6.4915E0,8.856161E-1,2.5765076E-1,1.0234264E0,8.150603E1,7.8227884E-1,3.329E1,5.1107043E-1,-2.25E1,7.039907E-1,4.7235498E-1,1.12103276E-1,1.339E2,3.4315002E1,3.267456E-1,1.1203595E0,3.5303423E-1,7.9563683E-1,1.010652E0,3.4872064E2,8.0125475E-1,9.885354E-1],"split_indices":[8,8,8,0,2,1,2,3,0,0,0,0,7,5,1,0,3,3,0,0,0,0,4,3,3,0,4,0,3,0,0,0,1,0,0,5,0,0,8,8,0,3,0,7,1,0,0,1,0,0,0,5,0,2,0,4,0,0,0,0,2,0,0,0,0,0,3,0,0],"split_type":[0,0,0,0,0,0,0,0,0,0,0,0,0,0,0,0,0,0,0,0,0,0,0,0,0,0,0,0,0,0,0,0,0,0,0,0,0,0,0,0,0,0,0,0,0,0,0,0,0,0,0,0,0,0,0,0,0,0,0,0,0,0,0,0,0,0,0,0,0],"sum_hessian":[1.541E3,7.5E2,7.91E2,6.56E2,9.4E1,1.66E2,6.25E2,2.58E2,3.98E2,5.5E1,3.9E1,6.5E1,1.01E2,2.27E2,3.98E2,7.9E1,1.79E2,3.44E2,5.4E1,5.4E1,4.7E1,1.2E1,2.15E2,1.8E1,3.8E2,8E0,1.71E2,4E1,3.04E2,4E0,8E0,1.4E1,2.01E2,1E1,8E0,3.45E2,3.5E1,6.3E1,1.08E2,1.82E2,1.22E2,1.67E2,3.4E1,2.9E1,3.16E2,6.7E1,4.1E1,1.23E2,5.9E1,1E0,1.66E2,1.4E1,1.5E1,3.08E2,8E0,1.12E2,1.1E1,1.3E1,1E0,2.1E1,2.87E2,1E0,1.11E2,7E0,1.4E1,7E1,2.17E2,1.81E2,3.6E1],"tree_param":{"num_deleted":"0","num_feature":"10","num_nodes":"69","size_leaf_vector":"0"}},{"base_weights":[7.8895884E0,8.260124E0,7.528273E0,8.075096E0,9.45279E0,6.3677454E0,7.825845E0,7.5032797E0,8.426037E0,8.4967575E0,1.091812E1,8.025324E0,5.817255E0,8.601956E0,7.3627386E0,9.050895E0,7.268794E0,6.2581267E0,8.560373E0,5.6617002E0,1.1430253E1,5.592998E0,8.671195E0,4.094427E0,6.114338E0,5.2899523E0,8.761466E0,7.07654E0,8.69952E0,7.6750965E0,6.209522E0,8.616904E0,5.3165927E0,3.3621914E0,6.243266E0,1.1570313E0,6.998247E0,5.8783245E0,8.932187E0,7.495519E0,6.1429095E0,6.4105377E0,9.140016E0,8.494538E0,6.585834E0,6.993465E0,5.296644E0,7.254333E0,8.80034E0,1.4019369E0,5.2644855E-1,9.191232E0,7.4335685E0,4.71074E0,7.713862E0,5.3590603E0,6.693735E0,1.0082302E1,6.747662E0,6.2731347E0,8.791974E0,3.8517914E0,6.72813E0,8.935133E0,7.0216336E0,8.41442E0,1.0020866E1,3.3817E0,5.8117065E0,3.1914139E0,7.764476E0,1.5484619E0,5.405226E0,3.0827866E0,6.8297014E0,8.123788E0,1.2022709E1,9.1015005E0,7.118239E0,8.594465E0,4.9746575E0,7.291442E0,8.519943E0,5.86478E0,8.001116E0,9.394837E0,7.998991E0,3.8827515E0,8.716517E0,8.185898E0,6.490584E0,8.712099E0,4.9221854E0,1.7189484E0,5.936159E0,8.381696E0,1.0059242E1,1.1783142E0,6.546448E0],"categories":[],"categories_nodes":[],"categories_segments":[],"categories_sizes":[],"default_left":[1,1,1,1,1,1,1,1,1,0,1,1,1,1,1,0,1,0,1,0,0,0,0,0,1,1,1,1,1,1,1,1,0,0,0,1,0,0,1,1,1,0,1,1,1,0,0,0,1,0,0,1,0,1,1,1,1,1,0,0,0,0,0,1,0,1,0,0,0,0,1,0,0,0,1,0,0,1,0,1,0,1,1,1,0,1,0,0,0,0,1,0,0,0,0,0,0,0,0],"id":37,"left_children":[1,3,5,7,9,11,13,15,17,-1,19,21,23,25,27,-1,29,-1,31,-1,-1,-1,-1,-1,33,35,37,39,41,43,45,47,-1,-1,-1,49,-1,-1,51,53,55,-1,57,59,61,-1,-1,-1,63,-1,-1,65,-1,67,69,71,73,75,-1,-1,-1,-1,-1,77,-1,79,-1,-1,-1,-1,81,-1,-1,-1,83,-1,-1,85,-1,87,-1,89,91,93,-1,95,-1,-1,-1,-1,97,-1,-1,-1,-1,-1,-1,-1,-1],"loss_changes":[1.4425781E2,8.939453E1,2.2367578E2,6.861719E1,4.0317383E1,1.0569971E2,1.6166406E2,2.8201172E1,6.2628906E1,0E0,2.68125E1,1.2769775E1,4.0990723E1,7.410547E1,9.108789E1,0E0,5.133008E1,0E0,2.2583984E1,0E0,0E0,0E0,0E0,0E0,1.7330322E1,8.3686005E1,5.3810547E1,8.460742E1,7.9541016E0,8.865527E1,1.2337402E1,2.7390625E1,0E0,0E0,0E0,3.4118652E-2,0E0,0E0,1.0095703E1,1.0107715E2,1.1189941E1,0E0,5.1445312E1,3.6513672E0,2.8737793E0,0E0,0E0,0E0,1.3263672E1,0E0,0E0,2.3951172E1,0E0,8.147919E0,2.2832031E1,4.2614746E-1,8.40332E0,3.9141357E1,0E0,0E0,0E0,0E0,0E0,2.3173828E1,0E0,1.4841309E1,0E0,0E0,0E0,0E0,1.1136719E1,0E0,0E0,0E0,1.7503662E1,0E0,0E0,9.908203E0,0E0,1.61875E1,0E0,4.2140625E1,7.584961E0,1.5344238E-1,0E0,5.1660156E1,0E0,0E0,0E0,0E0,1.4543701E1,0E0,0E0,0E0,0E0,0E0,0E0,0E0,0E0],"parents":[2147483647,0,0,1,1,2,2,3,3,4,4,5,5,6,6,7,7,8,8,10,10,11,11,12,12,13,13,14,14,16,16,18,18,24,24,25,25,26,26,27,27,28,28,29,29,30,30,31,31,35,35,38,38,39,39,40,40,42,42,43,43,44,44,48,48,51,51,53,53,54,54,55,55,56,56,57,57,63,63,65,65,70,70,74,74,77,77,79,79,81,81,82,82,83,83,85,85,90,90],"right_children":[2,4,6,8,10,12,14,16,18,-1,20,22,24,26,28,-1,30,-1,32,-1,-1,-1,-1,-1,34,36,38,40,42,44,46,48,-1,-1,-1,50,-1,-1,52,54,56,-1,58,60,62,-1,-1,-1,64,-1,-1,66,-1,68,70,72,74,76,-1,-1,-1,-1,-1,78,-1,80,-1,-1,-1,-1,82,-1,-1,-1,84,-1,-1,86,-1,88,-1,90,92,94,-1,96,-1,-1,-1,-1,98,-1,-1,-1,-1,-1,-1,-1,-1],"split_conditions":[6.5E0,4.5E0,8.5E0,1.2995E2,1.3E2,5.8780003E0,3.3055E1,1.25E1,3.0994999E1,8.496758E-1,3.4681635E2,3.430575E2,3.5E0,7.771774E1,2.55E1,9.050895E-1,3.5E0,6.258127E-1,3.5094366E2,5.6617004E-1,1.1430253E0,5.592998E-1,8.671195E-1,4.0944272E-1,3.420135E2,1.325E2,-2.55E1,3.5775E1,3.4534882E2,3.4614606E2,1.2795E2,3.430412E2,5.316593E-1,3.3621916E-1,6.2432665E-1,3.4459607E2,6.9982475E-1,5.8783245E-1,6.078E0,6.0905E0,1.05E1,6.410538E-1,-1.95E1,1.253E2,6.0810003E0,6.993465E-1,5.2966446E-1,7.254333E-1,6.4915E0,1.4019369E-1,5.2644856E-2,5.9300003E0,7.433569E-1,3.4831274E2,3.406087E2,6.2660217E1,3.4576678E2,9.5E0,6.7476624E-1,6.273135E-1,8.791974E-1,3.8517913E-1,6.72813E-1,1.3415E2,7.021634E-1,5.9025E0,1.0020866E0,3.3817002E-1,5.811707E-1,3.191414E-1,1.15E1,1.5484619E-1,5.4052263E-1,3.0827865E-1,3.6925E1,8.123788E-1,1.2022709E0,3.5E0,7.118239E-1,8.3432816E1,4.9746576E-1,8.5E0,6.2925E0,3.4626196E2,8.001116E-1,1.25E1,7.998991E-1,3.8827515E-1,8.7165177E-1,8.185898E-1,6.434085E1,8.712099E-1,4.9221855E-1,1.7189483E-1,5.9361595E-1,8.381696E-1,1.0059242E0,1.17831424E-1,6.5464485E-1],"split_indices":[8,8,8,0,0,1,2,7,2,0,3,3,7,5,7,0,8,0,3,0,0,0,0,0,3,0,4,2,3,3,0,3,0,0,0,3,0,0,1,1,8,0,4,0,1,0,0,0,1,0,0,1,0,3,3,5,3,8,0,0,0,0,0,0,0,1,0,0,0,0,8,0,0,0,2,0,0,8,0,5,0,6,1,3,0,7,0,0,0,0,5,0,0,0,0,0,0,0,0],"split_type":[0,0,0,0,0,0,0,0,0,0,0,0,0,0,0,0,0,0,0,0,0,0,0,0,0,0,0,0,0,0,0,0,0,0,0,0,0,0,0,0,0,0,0,0,0,0,0,0,0,0,0,0,0,0,0,0,0,0,0,0,0,0,0,0,0,0,0,0,0,0,0,0,0,0,0,0,0,0,0,0,0,0,0,0,0,0,0,0,0,0,0,0,0,0,0,0,0,0,0],"sum_hessian":[1.541E3,7.5E2,7.91E2,6.56E2,9.4E1,1.66E2,6.25E2,2.58E2,3.98E2,6.1E1,3.3E1,3.8E1,1.28E2,2.27E2,3.98E2,2.9E1,2.29E2,2.6E1,3.72E2,4E0,2.9E1,1E1,2.8E1,2.1E1,1.07E2,1.2E1,2.15E2,3.33E2,6.5E1,1.61E2,6.8E1,3.64E2,8E0,6E0,1.01E2,4E0,8E0,1.4E1,2.01E2,2.25E2,1.08E2,1.3E1,5.2E1,8.8E1,7.3E1,3.3E1,3.5E1,4.8E1,3.16E2,2E0,2E0,1.67E2,3.4E1,1.8E1,2.07E2,4.9E1,5.9E1,3.5E1,1.7E1,1.3E1,7.5E1,5E0,6.8E1,2.9E2,2.6E1,9.2E1,7.5E1,1E1,8E0,3E0,2.04E2,1E0,4.8E1,3E0,5.6E1,2E1,1.5E1,2.62E2,2.8E1,8.6E1,6E0,1.32E2,7.2E1,3.4E1,2.2E1,2.01E2,6.1E1,3E0,8.3E1,5.8E1,7.4E1,6.7E1,5E0,1E0,3.3E1,8.5E1,1.16E2,1E0,7.3E1],"tree_param":{"num_deleted":"0","num_feature":"10","num_nodes":"99","size_leaf_vector":"0"}},{"base_weights":[7.1207795E0,7.451686E0,6.7980123E0,7.28378E0,8.534447E0,6.284455E0,7.372643E0,6.771087E0,7.5983257E0,9.365838E0,7.157138E0,5.0433435E0,6.4825416E0,6.4072313E0,8.000218E0,8.175975E0,6.5584016E0,5.363341E0,7.7021155E0,4.168191E0,5.760892E0,5.086408E0,6.6791387E0,7.4110885E0,5.7303476E0,4.0448E0,8.0926485E0,6.923406E0,5.6063848E0,7.750689E0,4.844018E0,4.7907295E0,3.025589E0,1.347702E0,5.8597784E0,5.754719E0,4.080722E0,7.9215703E0,6.1855373E0,5.303532E0,7.0443892E0,4.3458E0,1.1194E0,8.272045E0,6.159163E0,7.6619987E0,5.9415393E0,6.314693E0,4.7816944E0,6.5437045E0,7.909796E0,6.17874E0,2.6532776E0,4.857287E0,2.964096E0,8.418289E0,4.484739E0,5.4509997E0,7.038307E0,5.4147315E0,3.122279E0,7.9742675E0,9.796453E0,5.6906238E0,7.924331E0,3.5307972E0,6.06506E0,8.314837E0,7.2686486E0,3.6380649E0,7.0664215E-1,3.2324421E0,5.841925E0,8.163165E0,5.9484596E0,8.290841E0,4.4882126E0,8.8483305E0,7.219719E0,6.345597E0,7.7315526E0,4.5579276E0,8.47638E0,6.983608E0,8.967031E0,2.6486397E0,5.624698E0,9.098951E0,5.750956E0,3.716156E0,9.16246E0],"categories":[],"categories_nodes":[],"categories_segments":[],"categories_sizes":[],"default_left":[1,1,1,1,1,1,1,1,1,0,0,1,1,1,1,0,1,0,1,1,1,1,1,0,1,1,1,1,1,1,0,0,0,0,0,1,1,1,1,1,0,0,0,1,0,1,1,0,0,0,1,0,0,0,1,0,1,0,1,0,0,1,0,0,0,0,0,1,1,0,0,0,0,1,0,1,1,1,0,0,0,0,0,0,0,0,0,1,0,0,0],"id":38,"left_children":[1,3,5,7,9,11,13,15,17,-1,-1,19,21,23,25,-1,27,-1,29,31,33,35,37,-1,39,41,43,45,47,49,-1,-1,-1,-1,-1,51,53,55,57,59,-1,-1,-1,61,-1,63,65,-1,-1,-1,67,-1,-1,-1,69,-1,71,-1,73,-1,-1,75,-1,-1,-1,-1,-1,77,79,-1,-1,-1,-1,81,-1,83,85,87,-1,-1,-1,-1,-1,-1,-1,-1,-1,89,-1,-1,-1],"loss_changes":[1.1403906E2,7.437109E1,1.8738672E2,5.4507812E1,4.175049E1,7.179297E1,1.7169922E2,2.3766602E1,5.124414E1,0E0,0E0,1.5549316E1,6.566211E1,5.9456543E1,4.7333984E1,0E0,4.11084E1,0E0,1.5072266E1,8.267273E0,6.067749E0,9.450073E0,1.4417969E2,0E0,1.5360107E1,1.2991333E0,2.2932617E1,7.195801E1,1.0110352E1,1.9488281E1,0E0,0E0,0E0,0E0,0E0,1.9113098E1,5.546631E0,1.0905957E2,1.057041E2,1.2854004E0,0E0,0E0,0E0,9.035156E0,0E0,9.321289E-1,6.208496E-1,0E0,0E0,0E0,2.3441406E1,0E0,0E0,0E0,1.568663E1,0E0,3.2111206E0,0E0,7.77124E1,0E0,0E0,1.4598438E2,0E0,0E0,0E0,0E0,0E0,4.770703E1,7.7680664E0,0E0,0E0,0E0,0E0,1.5567627E1,0E0,7.085254E1,1.8552582E1,4.3929688E1,0E0,0E0,0E0,0E0,0E0,0E0,0E0,0E0,0E0,4.580078E0,0E0,0E0,0E0],"parents":[2147483647,0,0,1,1,2,2,3,3,4,4,5,5,6,6,7,7,8,8,11,11,12,12,13,13,14,14,16,16,18,18,19,19,20,20,21,21,22,22,24,24,25,25,26,26,27,27,28,28,29,29,35,35,36,36,37,37,38,38,39,39,43,43,45,45,46,46,50,50,54,54,56,56,58,58,61,61,67,67,68,68,73,73,75,75,76,76,77,77,87,87],"right_children":[2,4,6,8,10,12,14,16,18,-1,-1,20,22,24,26,-1,28,-1,30,32,34,36,38,-1,40,42,44,46,48,50,-1,-1,-1,-1,-1,52,54,56,58,60,-1,-1,-1,62,-1,64,66,-1,-1,-1,68,-1,-1,-1,70,-1,72,-1,74,-1,-1,76,-1,-1,-1,-1,-1,78,80,-1,-1,-1,-1,82,-1,84,86,88,-1,-1,-1,-1,-1,-1,-1,-1,-1,90,-1,-1,-1],"split_conditions":[6.5E0,4.5E0,1.05E1,1.2995E2,3.4985E1,3.5E0,1.3185E2,1.25E1,5.8225E0,9.365838E-1,7.157138E-1,3.447708E2,8.169737E1,3.459969E2,6.434085E1,8.175975E-1,3.5E0,5.363341E-1,3.5094366E2,3.4314505E2,8.161364E1,-1.95E1,3.444884E2,7.4110883E-1,3.6925E1,6.418071E1,3.4315002E1,3.4614606E2,1.2795E2,3.430412E2,4.844018E-1,4.7907296E-1,3.025589E-1,1.347702E-1,5.8597785E-1,6.4700003E0,9.5E0,6.4005003E0,2.25E1,3.6620003E1,7.044389E-1,4.3458E-1,1.11940004E-1,2.85E1,6.159163E-1,1.253E2,6.0810003E0,6.314693E-1,4.7816944E-1,6.543705E-1,3.46748E2,6.17874E-1,2.6532778E-1,4.857287E-1,3.4396936E2,8.4182894E-1,9.5E0,5.451E-1,1.3175E2,5.4147315E-1,3.122279E-1,2.05E1,9.796454E-1,5.690624E-1,7.9243314E-1,3.5307974E-1,6.0650605E-1,3.5E0,3.4815186E2,3.638065E-1,7.066422E-2,3.232442E-1,5.841925E-1,8.548433E1,5.9484595E-1,3.4586652E2,1.3395001E2,6.4915E0,7.219719E-1,6.345597E-1,7.731553E-1,4.5579275E-1,8.476381E-1,6.983608E-1,8.9670306E-1,2.6486397E-1,5.6246984E-1,7.295816E1,5.750956E-1,3.7161562E-1,9.1624606E-1],"split_indices":[8,8,8,0,2,7,0,7,1,0,0,3,5,3,5,0,8,0,3,3,5,4,3,0,2,5,2,3,0,3,0,0,0,0,0,1,6,1,7,2,0,0,0,7,0,0,1,0,0,0,3,0,0,0,3,0,6,0,0,0,0,7,0,0,0,0,0,8,3,0,0,0,0,5,0,3,0,1,0,0,0,0,0,0,0,0,0,5,0,0,0],"split_type":[0,0,0,0,0,0,0,0,0,0,0,0,0,0,0,0,0,0,0,0,0,0,0,0,0,0,0,0,0,0,0,0,0,0,0,0,0,0,0,0,0,0,0,0,0,0,0,0,0,0,0,0,0,0,0,0,0,0,0,0,0,0,0,0,0,0,0,0,0,0,0,0,0,0,0,0,0,0,0,0,0,0,0,0,0,0,0,0,0,0,0],"sum_hessian":[1.541E3,7.5E2,7.91E2,6.56E2,9.4E1,4.24E2,3.67E2,2.58E2,3.98E2,5.5E1,3.9E1,6.2E1,3.62E2,1.49E2,2.18E2,2.9E1,2.29E2,2E1,3.78E2,3.1E1,3.1E1,4.8E1,3.14E2,5.6E1,9.3E1,6E0,2.12E2,1.61E2,6.8E1,3.7E2,8E0,1.8E1,1.3E1,1E0,3E1,2.6E1,2.2E1,8.5E1,2.29E2,7.4E1,1.9E1,5E0,1E0,1.91E2,2.1E1,8.8E1,7.3E1,3.3E1,3.5E1,4.8E1,3.22E2,2.2E1,4E0,1.1E1,1.1E1,7.3E1,1.2E1,1.27E2,1.02E2,6.9E1,5E0,1.65E2,2.6E1,1.3E1,7.5E1,5E0,6.8E1,1.9E2,1.32E2,8E0,3E0,8E0,4E0,4.7E1,5.5E1,1.5E2,1.5E1,1.23E2,6.7E1,4.9E1,8.3E1,5E0,4.2E1,5.5E1,9.5E1,7E0,8E0,1.12E2,1.1E1,2E0,1.1E2],"tree_param":{"num_deleted":"0","num_feature":"10","num_nodes":"91","size_leaf_vector":"0"}},{"base_weights":[6.4255166E0,6.721918E0,6.1363463E0,6.5704923E0,7.6983886E0,5.171625E0,6.383906E0,6.1103835E0,6.852692E0,6.878238E0,8.967533E0,6.5704885E0,4.708623E0,7.0138783E0,6.0079217E0,7.385631E0,5.91748E0,7.0235343E0,5.656451E0,3.510016E0,7.050012E0,4.893397E0,9.501232E0,4.68047E0,7.0608234E0,3.3265283E0,4.9465623E0,4.3344445E0,7.1426687E0,5.760401E0,7.169498E0,6.2453995E0,5.0618224E0,5.81271E0,7.1588593E0,3.8689651E0,2.4323676E0,2.5155487E0,5.0401497E0,9.6472776E-1,5.7249045E0,4.8005776E0,7.2812266E0,6.1078095E0,4.9872375E0,5.2433624E0,7.543015E0,6.9111085E0,5.360352E0,5.7017956E0,4.3167973E0,7.528019E0,6.548418E0,1.1636454E0,4.4423422E-1,7.4929585E0,6.0568795E0,3.7739305E0,6.291636E0,4.307371E0,5.470672E0,8.332518E0,5.5449524E0,3.4217732E0,5.9769106E0,7.9785085E0,6.488859E0,6.114897E0,7.6377435E0,6.826572E0,8.209813E0,2.5807078E0,4.8129883E0,2.6261215E0,6.3324676E0,2.2957306E0,5.5974984E0,6.615054E0,1.0065907E1,4.06501E0,1.4235331E0,8.20044E0,5.223778E0,6.416899E0,4.600944E0,7.2236013E0,5.3041515E0,6.821122E0,5.740361E0,4.806909E0,6.557199E0,8.380832E0,5.504321E0,7.8606935E0,5.6484337E0,4.4477262E0,7.0199494E0,2.4168854E0,5.966964E0,5.0356426E0,2.862091E0,6.7389116E0,8.8151245E0,4.636435E0,1.2803192E0,7.3990035E0,5.1906404E0],"categories":[],"categories_nodes":[],"categories_segments":[],"categories_sizes":[],"default_left":[1,1,1,1,1,1,1,1,1,1,1,1,1,1,1,0,1,1,0,0,0,0,0,0,0,1,1,1,1,1,1,1,1,0,1,0,0,0,0,1,0,0,1,1,1,0,1,0,0,1,0,1,1,1,1,1,0,1,1,0,1,1,0,1,0,1,0,1,0,1,0,0,0,0,1,0,1,0,0,0,0,1,0,0,0,1,0,1,1,1,0,1,0,0,0,1,1,0,0,0,0,0,0,0,0,0,0],"id":39,"left_children":[1,3,5,7,9,11,13,15,17,19,21,23,25,27,29,-1,31,33,-1,-1,-1,-1,-1,-1,-1,35,37,39,41,43,45,47,49,-1,51,-1,-1,-1,-1,-1,-1,-1,55,57,59,-1,61,-1,-1,63,-1,65,67,-1,-1,69,-1,71,73,-1,75,77,-1,79,-1,81,-1,83,-1,85,-1,-1,-1,-1,87,-1,89,-1,-1,-1,-1,91,-1,-1,-1,93,-1,95,97,99,-1,101,-1,-1,-1,103,105,-1,-1,-1,-1,-1,-1,-1,-1,-1,-1],"loss_changes":[9.091797E1,6.0460938E1,1.5613477E2,4.3433594E1,3.72041E1,7.722461E1,1.06134766E2,2.0009766E1,4.1816406E1,1.1125977E1,2.7435303E1,3.0950928E0,2.5967285E1,4.7720703E1,7.341797E1,0E0,3.2921875E1,1.4916016E1,0E0,0E0,0E0,0E0,0E0,0E0,0E0,1.2598114E0,1.1892578E1,5.5387985E1,3.5140625E1,5.925293E1,7.9328613E0,5.8401855E1,8.285645E0,0E0,1.9661133E1,0E0,0E0,0E0,0E0,7.452965E-4,0E0,0E0,6.982422E0,7.321582E1,1.2260986E1,0E0,3.7402832E1,0E0,0E0,8.753662E-1,0E0,3.4365234E1,1.1381836E1,0E0,0E0,2.4208984E1,0E0,1.1135803E1,1.4500977E1,0E0,1.130957E1,4.058667E1,0E0,1.9253693E0,0E0,3.2970703E1,0E0,1.2997559E1,0E0,1.7898438E1,0E0,0E0,0E0,0E0,2.0158203E1,0E0,1.1727661E1,0E0,0E0,0E0,0E0,8.827637E0,0E0,0E0,0E0,2.6849854E1,0E0,1.927002E1,6.013623E1,1.1571045E0,0E0,1.4755859E1,0E0,0E0,0E0,6.3874817E-1,2.885498E1,0E0,0E0,0E0,0E0,0E0,0E0,0E0,0E0,0E0,0E0],"parents":[2147483647,0,0,1,1,2,2,3,3,4,4,5,5,6,6,7,7,8,8,9,9,10,10,11,11,12,12,13,13,14,14,16,16,17,17,25,25,26,26,27,27,28,28,29,29,30,30,31,31,32,32,34,34,39,39,42,42,43,43,44,44,46,46,49,49,51,51,52,52,55,55,57,57,58,58,60,60,61,61,63,63,65,65,67,67,69,69,74,74,76,76,81,81,85,85,87,87,88,88,89,89,91,91,95,95,96,96],"right_children":[2,4,6,8,10,12,14,16,18,20,22,24,26,28,30,-1,32,34,-1,-1,-1,-1,-1,-1,-1,36,38,40,42,44,46,48,50,-1,52,-1,-1,-1,-1,-1,-1,-1,56,58,60,-1,62,-1,-1,64,-1,66,68,-1,-1,70,-1,72,74,-1,76,78,-1,80,-1,82,-1,84,-1,86,-1,-1,-1,-1,88,-1,90,-1,-1,-1,-1,92,-1,-1,-1,94,-1,96,98,100,-1,102,-1,-1,-1,104,106,-1,-1,-1,-1,-1,-1,-1,-1,-1,-1],"split_conditions":[6.5E0,4.5E0,8.5E0,1.2995E2,1.3E2,5.8780003E0,3.3055E1,1.25E1,1.3415E2,8.4400314E1,3.4759976E2,3.430575E2,3.5E0,7.771774E1,2.55E1,7.385631E-1,3.5E0,3.429121E2,5.6564516E-1,3.510016E-1,7.0500124E-1,4.8933968E-1,9.5012325E-1,4.68047E-1,7.0608234E-1,3.4314505E2,3.4079773E2,1.325E2,-2.55E1,3.5775E1,3.4534882E2,3.4614606E2,1.2795E2,5.81271E-1,3.4683563E2,3.8689652E-1,2.4323677E-1,2.5155488E-1,5.0401497E-1,9.647278E-2,5.7249045E-1,4.8005778E-1,6.078E0,6.0905E0,1.05E1,5.243363E-1,-1.95E1,6.9111085E-1,5.3603524E-1,3.4480096E2,4.3167973E-1,3.5E0,-1.95E1,1.1636454E-1,4.4423424E-2,5.9300003E0,6.05688E-1,3.4831274E2,3.406087E2,4.307371E-1,3.4576678E2,9.5E0,5.544953E-1,1.2745E2,5.9769106E-1,6.4915E0,6.488859E-1,1.65E1,7.6377434E-1,5.858E0,8.209813E-1,2.580708E-1,4.8129883E-1,2.6261216E-1,1.65E1,2.2957306E-1,3.6925E1,6.615054E-1,1.0065907E0,4.0650102E-1,1.4235331E-1,2.75E1,5.223778E-1,6.4168996E-1,4.6009442E-1,1.3641718E2,5.304152E-1,8.1528366E1,3.32975E1,3.6620003E1,6.5571994E-1,1.25E1,5.5043215E-1,7.8606933E-1,5.6484336E-1,3.4521194E2,3.482121E2,2.4168853E-1,5.966964E-1,5.035643E-1,2.862091E-1,6.738912E-1,8.8151246E-1,4.6364352E-1,1.2803192E-1,7.3990035E-1,5.1906407E-1],"split_indices":[8,8,8,0,0,1,2,7,0,5,3,3,7,5,7,0,8,3,0,0,0,0,0,0,0,3,3,0,4,2,3,3,0,0,3,0,0,0,0,3,0,0,1,1,8,0,4,0,0,3,0,8,4,2147483647,2147483647,1,0,3,3,0,3,8,0,0,0,1,0,7,0,1,0,0,0,0,7,0,2,0,0,0,0,7,0,0,0,0,0,5,2,2,0,7,0,0,0,3,3,0,0,0,0,0,0,0,0,0,0],"split_type":[0,0,0,0,0,0,0,0,0,0,0,0,0,0,0,0,0,0,0,0,0,0,0,0,0,0,0,0,0,0,0,0,0,0,0,0,0,0,0,0,0,0,0,0,0,0,0,0,0,0,0,0,0,0,0,0,0,0,0,0,0,0,0,0,0,0,0,0,0,0,0,0,0,0,0,0,0,0,0,0,0,0,0,0,0,0,0,0,0,0,0,0,0,0,0,0,0,0,0,0,0,0,0,0,0,0,0],"sum_hessian":[1.541E3,7.5E2,7.91E2,6.56E2,9.4E1,1.66E2,6.25E2,2.58E2,3.98E2,6.1E1,3.3E1,3.8E1,1.28E2,2.27E2,3.98E2,2.9E1,2.29E2,3.44E2,5.4E1,4E0,5.7E1,5E0,2.8E1,1E1,2.8E1,2.1E1,1.07E2,1.2E1,2.15E2,3.33E2,6.5E1,1.61E2,6.8E1,3.9E1,3.05E2,1.1E1,1E1,5E0,1.02E2,4E0,8E0,1.4E1,2.01E2,2.25E2,1.08E2,1.3E1,5.2E1,8.8E1,7.3E1,3.3E1,3.5E1,1.83E2,1.22E2,2E0,2E0,1.67E2,3.4E1,1.8E1,2.07E2,4.9E1,5.9E1,3.5E1,1.7E1,5E0,2.8E1,1.23E2,6E1,9.2E1,3E1,9.2E1,7.5E1,1E1,8E0,3E0,2.04E2,3E0,5.6E1,2E1,1.5E1,3E0,2E0,1.12E2,1.1E1,7.4E1,1.8E1,7E1,2.2E1,1.06E2,9.8E1,3.4E1,2.2E1,1.03E2,9E0,4.7E1,2.3E1,1E1,9.6E1,7E0,9.1E1,2.9E1,5E0,2.5E1,7.8E1,9E0,1E0,7.7E1,1.9E1],"tree_param":{"num_deleted":"2","num_feature":"10","num_nodes":"107","size_leaf_vector":"0"}},{"base_weights":[5.801051E0,5.9673476E0,5.3736916E0,5.547752E0,6.212129E0,4.61533E0,5.5544786E0,5.629967E0,4.30499E0,7.3629594E0,5.960528E0,5.510525E0,3.9574313E0,4.8937955E0,5.7728176E0,4.5666127E0,5.74652E0,5.6742887E0,3.3366256E0,5.4623456E0,7.714495E0,5.691002E0,6.585968E0,4.696766E0,7.1566224E0,2.5918655E0,4.2336392E0,2.6235912E0,4.9918566E0,6.5168943E0,5.4792237E0,3.8237257E0,5.8045015E0,3.5513E0,1.5901031E0,6.4015627E0,5.229536E0,6.9525123E0,5.2234793E0,4.3910136E0,2.0964417E0,4.657802E0,6.4487348E0,4.5503063E0,6.987621E0,5.939371E0,4.9772525E0,6.2139935E0,5.382617E0,1.0203552E0,3.645712E0,5.5739427E0,7.1885104E0,4.34975E0,5.465608E0,2.5747502E0,4.970707E0,4.9841127E0,7.579031E0,5.227862E0,3.2420206E0,6.36474E0,3.5660484E0,4.0663857E0,5.590587E0,4.4824257E0,6.553399E0,8.309054E0,5.638471E0,4.927337E0,5.9028E0,3.0191345E0,1.6271769E0,1.5856323E0,5.29736E0,4.171298E0,6.489832E0,5.7184906E0,2.0440712E0,4.3724785E0,2.5671954E0,5.9373755E0,4.76609E0,3.1159756E0,5.005564E0,4.3339972E0,7.245793E0,3.850671E0,5.134395E0,4.759005E0,6.2552385E0,5.7773438E0,2.7499063E0,5.405791E0,2.3235867E0,6.3352957E0,2.2487895E0,3.5140414E0,1.1453857E0],"categories":[],"categories_nodes":[],"categories_segments":[],"categories_sizes":[],"default_left":[1,1,1,1,1,1,1,1,1,1,1,1,1,1,1,0,1,0,1,0,0,1,1,0,0,0,1,0,1,1,1,0,1,1,0,1,1,0,0,0,0,1,0,0,1,0,1,1,1,0,0,1,1,0,1,1,0,0,0,1,0,1,1,1,1,1,1,0,0,1,0,0,0,0,0,0,0,0,0,0,0,1,0,0,0,0,0,1,0,1,1,0,1,0,0,0,0,0,0],"id":40,"left_children":[1,3,5,7,9,11,13,15,17,19,21,23,25,27,29,-1,31,-1,33,-1,-1,35,37,-1,-1,-1,39,-1,41,43,45,-1,47,49,-1,51,53,-1,-1,-1,-1,55,-1,-1,57,-1,59,61,63,-1,-1,65,67,-1,69,71,-1,-1,-1,73,-1,75,77,79,81,83,85,-1,-1,87,-1,-1,-1,-1,-1,-1,-1,-1,-1,-1,-1,89,-1,-1,-1,-1,-1,91,-1,93,95,-1,97,-1,-1,-1,-1,-1,-1],"loss_changes":[7.751953E1,7.862109E1,3.4963867E1,1.816504E1,1.5503516E2,3.1786743E1,2.2527344E1,2.159668E1,2.0846375E1,3.7368652E1,5.8435547E1,1.4609985E1,1.0148987E1,7.82959E0,2.087207E1,0E0,1.6157227E1,0E0,1.8517303E0,0E0,0E0,9.9322266E1,4.6086914E1,0E0,0E0,0E0,5.9298706E0,0E0,1.3277344E1,3.1153564E1,1.4787109E1,0E0,2.3907227E1,3.4223938E-1,0E0,6.0881836E1,2.8357422E1,0E0,0E0,0E0,0E0,3.673828E1,0E0,0E0,2.5024658E1,0E0,2.5667725E1,4.196826E1,2.4075195E1,0E0,0E0,5.6152344E1,8.515332E1,0E0,1.656836E1,1.4037323E-1,0E0,0E0,0E0,1.2863037E1,0E0,1.4635254E1,2.4346634E1,1.1650696E0,1.3161133E1,1.3711304E1,3.006482E1,0E0,0E0,9.6191406E-1,0E0,0E0,0E0,0E0,0E0,0E0,0E0,0E0,0E0,0E0,0E0,6.9379883E0,0E0,0E0,0E0,0E0,0E0,2.4408295E1,0E0,2.681903E1,9.488525E0,0E0,1.3140053E1,0E0,0E0,0E0,0E0,0E0,0E0],"parents":[2147483647,0,0,1,1,2,2,3,3,4,4,5,5,6,6,7,7,8,8,9,9,10,10,11,11,12,12,13,13,14,14,16,16,18,18,21,21,22,22,26,26,28,28,29,29,30,30,32,32,33,33,35,35,36,36,41,41,44,44,46,46,47,47,48,48,51,51,52,52,54,54,55,55,59,59,61,61,62,62,63,63,64,64,65,65,66,66,69,69,81,81,87,87,89,89,90,90,92,92],"right_children":[2,4,6,8,10,12,14,16,18,20,22,24,26,28,30,-1,32,-1,34,-1,-1,36,38,-1,-1,-1,40,-1,42,44,46,-1,48,50,-1,52,54,-1,-1,-1,-1,56,-1,-1,58,-1,60,62,64,-1,-1,66,68,-1,70,72,-1,-1,-1,74,-1,76,78,80,82,84,86,-1,-1,88,-1,-1,-1,-1,-1,-1,-1,-1,-1,-1,-1,90,-1,-1,-1,-1,-1,92,-1,94,96,-1,98,-1,-1,-1,-1,-1,-1],"split_conditions":[3.5125E1,1.25E1,9.2778824E1,1.05E1,1.55E1,3.582E1,1.2705E2,3.4301425E2,3.4383386E2,3.443822E2,1.05E1,3.5660004E1,3.5940002E1,5.5E0,1.283E2,4.5666128E-1,8.171286E1,5.674289E-1,1.3722E2,5.4623455E-1,7.714495E-1,3.5E0,3.4315002E1,4.6967658E-1,7.1566224E-1,2.5918657E-1,3.722E1,2.623591E-1,1.15E1,2E0,6.5E0,3.823726E-1,3.4603497E2,3.4422125E2,1.5901032E-1,2.5E0,1.85E1,6.952512E-1,5.223479E-1,4.3910137E-1,2.0964418E-1,-2.55E1,6.448735E-1,4.5503065E-1,6.2720003E0,5.939371E-1,-1.65E1,6.1914997E0,1.315E2,1.0203552E-1,3.6457118E-1,3.479278E2,2.65E1,4.34975E-1,3.32925E1,8E0,4.970707E-1,4.9841127E-1,7.579031E-1,3.4384747E2,3.2420206E-1,5.6844997E0,1.3081696E2,6.0255E0,1.3335E2,6.113E0,2.15E1,8.3090544E-1,5.638471E-1,1.3135E2,5.9028E-1,3.0191347E-1,1.6271769E-1,1.5856324E-1,5.29736E-1,4.171298E-1,6.489832E-1,5.7184905E-1,2.0440713E-1,4.3724784E-1,2.5671956E-1,9.270477E1,4.76609E-1,3.1159756E-1,5.005564E-1,4.3339974E-1,7.245793E-1,8.5E0,5.1343954E-1,1.6E1,9.317902E1,5.777344E-1,-1.95E1,5.405791E-1,2.3235868E-1,6.335296E-1,2.2487895E-1,3.5140416E-1,1.1453857E-1],"split_indices":[2,7,5,7,7,2,0,3,3,3,8,2,2,7,0,0,5,0,0,0,0,8,2,0,0,0,2,0,8,8,8,0,3,3,0,8,7,0,0,0,0,4,0,0,1,0,4,1,0,0,0,3,7,0,2,6,0,0,0,3,0,1,0,1,0,1,7,0,0,0,0,0,0,0,0,0,0,0,0,0,0,5,0,0,0,0,0,6,0,6,5,0,4,0,0,0,0,0,0],"split_type":[0,0,0,0,0,0,0,0,0,0,0,0,0,0,0,0,0,0,0,0,0,0,0,0,0,0,0,0,0,0,0,0,0,0,0,0,0,0,0,0,0,0,0,0,0,0,0,0,0,0,0,0,0,0,0,0,0,0,0,0,0,0,0,0,0,0,0,0,0,0,0,0,0,0,0,0,0,0,0,0,0,0,0,0,0,0,0,0,0,0,0,0,0,0,0,0,0,0,0],"sum_hessian":[1.541E3,1.1E3,4.41E2,4.14E2,6.86E2,9E1,3.51E2,3.85E2,2.9E1,1.18E2,5.68E2,3.5E1,5.5E1,9.3E1,2.58E2,4.2E1,3.43E2,1E1,1.9E1,2.1E1,9.7E1,4.04E2,1.64E2,2.6E1,9E0,1.1E1,4.4E1,5E0,8.8E1,6.7E1,1.91E2,1.2E1,3.31E2,1.6E1,3E0,1.54E2,2.5E2,1.26E2,3.8E1,4E1,4E0,7.5E1,1.3E1,1.5E1,5.2E1,9.4E1,9.7E1,1.61E2,1.7E2,1E0,1.5E1,7.9E1,7.5E1,5.7E1,1.93E2,1.1E1,6.4E1,1.4E1,3.8E1,8.3E1,1.4E1,1.51E2,1E1,2.6E1,1.44E2,4E1,3.9E1,4.1E1,3.4E1,9.2E1,1.01E2,6E0,5E0,2E0,8.1E1,1E1,1.41E2,3E0,7E0,2E1,6E0,9.7E1,4.7E1,1.3E1,2.7E1,1.1E1,2.8E1,1.8E1,7.4E1,2.4E1,7.3E1,5E0,1.3E1,1.8E1,6E0,7.1E1,2E0,8E0,5E0],"tree_param":{"num_deleted":"0","num_feature":"10","num_nodes":"99","size_leaf_vector":"0"}},{"base_weights":[5.235501E0,5.3843827E0,4.8527985E0,5.0090623E0,5.603267E0,4.176809E0,5.013771E0,5.455616E0,4.7977695E0,6.637733E0,5.377073E0,4.9924054E0,3.577911E0,4.2800016E0,5.1743917E0,4.457804E0,6.053416E0,5.100868E0,3.9803922E0,4.8893623E0,6.941551E0,5.136593E0,5.9347525E0,4.2444954E0,6.5125213E0,2.3542786E0,3.8247037E0,2.3559952E0,4.604279E0,5.5370393E0,4.8230333E0,3.4213948E0,4.9194403E0,6.1319323E0,2.0988667E0,4.3621E0,5.384714E0,2.5158355E0,4.3472567E0,1.3886108E0,4.9949694E0,5.7831187E0,4.7168794E0,6.2627354E0,4.714534E0,2.9073012E0,4.654509E0,3.962636E0,1.928717E0,2.7603543E0,1.4915771E0,4.4347477E0,5.8854623E0,4.385986E0,6.266143E0,4.37923E0,6.620514E0,6.1765256E0,1.4383087E0,4.051969E0,5.772668E0,4.984985E0,5.9381185E0,4.8011446E0,3.3718174E0,5.041178E0,6.488015E0,3.9222822E0,4.9301257E0,5.8949194E0,7.4066854E0,3.5777981E0,5.997073E0,4.549308E0,2.939445E0,7.1550517E0,4.1142983E0,1.7617416E0,4.989772E0,1.3814819E0,3.7008102E0,4.0540004E0,5.927006E0,7.497936E0,5.0907383E0,4.393887E0,3.3356547E0,5.1545386E0,4.096047E0,6.3583736E0,3.0354214E0,1.4799194E0,4.594105E0,1.9741669E0,7.307752E0,5.3011465E0,2.8090384E0,4.9064007E0,3.2457836E0,3.936704E0,6.5461993E0,1.5479584E0,3.8124337E0,5.5553327E0,4.661173E0,4.1674476E0,6.69145E0,1.5970535E0,3.9767015E0,6.231336E0,4.430281E0,2.0731914E0,5.1309776E0,6.856616E0,3.6848755E0,3.3356225E0,5.1323447E0,1.304184E0,4.829776E0,1.5069885E0,6.767563E0,5.047355E0,3.9732466E0,3.9461203E0,1.049942E0,4.253249E0,5.7887945E0,5.134796E0,8.8978577E-1],"categories":[],"categories_nodes":[],"categories_segments":[],"categories_sizes":[],"default_left":[1,1,1,1,1,1,1,1,1,1,1,1,1,1,1,1,1,1,1,1,0,1,1,1,0,0,1,1,0,1,1,0,1,1,0,1,1,0,1,0,0,1,1,1,0,0,0,0,0,0,0,0,1,1,1,0,0,0,0,0,0,0,0,1,1,1,1,1,1,1,0,0,0,1,0,1,0,0,1,0,0,1,1,0,0,0,1,1,0,1,1,0,1,0,0,0,0,1,0,0,1,0,0,0,1,1,0,0,0,1,1,0,0,0,0,1,1,0,1,0,0,0,0,0,0,0,0,0,0],"id":41,"left_children":[1,3,5,7,9,11,13,15,17,19,21,23,25,27,29,31,33,35,37,39,-1,41,43,45,-1,-1,47,49,-1,51,53,-1,55,57,-1,59,61,-1,63,-1,-1,65,67,69,-1,-1,-1,-1,-1,-1,-1,-1,71,73,75,-1,-1,-1,-1,-1,-1,-1,-1,77,79,81,83,85,87,89,-1,-1,-1,91,-1,93,-1,-1,95,-1,-1,97,99,-1,-1,-1,101,103,-1,105,107,-1,109,-1,-1,-1,-1,111,-1,-1,113,-1,-1,-1,115,117,-1,-1,-1,119,121,-1,-1,-1,-1,123,125,-1,127,-1,-1,-1,-1,-1,-1,-1,-1,-1,-1],"loss_changes":[6.1726562E1,6.238086E1,2.7154297E1,1.2981445E1,1.250625E2,2.658728E1,1.9339844E1,4.8173096E1,5.154297E1,2.9271973E1,4.5822266E1,1.3286377E1,7.9066772E0,3.220215E1,9.482422E0,7.569275E0,1.0727783E1,2.012793E1,3.3658325E1,8.2769775E-1,0E0,8.262109E1,3.650879E1,1.2711487E0,0E0,0E0,4.1254883E0,7.714081E-2,0E0,2.4979736E1,6.838428E1,0E0,1.3321533E0,6.6047363E0,0E0,4.1693115E0,2.6953125E0,0E0,1.25896E1,0E0,0E0,4.8356445E1,2.319336E1,9.774902E0,0E0,0E0,0E0,0E0,0E0,0E0,0E0,0E0,3.7844238E0,1.4977783E1,3.3684204E1,0E0,0E0,0E0,0E0,0E0,0E0,0E0,0E0,1.5288513E1,1.0602722E1,4.5929443E1,6.9076416E1,1.3895874E0,1.5199219E1,1.1454932E2,0E0,0E0,0E0,7.775879E0,0E0,2.9780273E0,0E0,0E0,1.159082E1,0E0,0E0,1.232074E1,2.3524902E1,0E0,0E0,0E0,1.966861E1,3.5686035E0,0E0,3.487207E1,1.5311493E1,0E0,2.8808594E-1,0E0,0E0,0E0,0E0,8.154297E-1,0E0,0E0,4.9194336E-1,0E0,0E0,0E0,2.8473389E1,2.0250946E1,0E0,0E0,0E0,7.534607E0,7.5839844E0,0E0,0E0,0E0,0E0,2.6555649E1,5.387207E0,0E0,8.650696E0,0E0,0E0,0E0,0E0,0E0,0E0,0E0,0E0,0E0,0E0],"parents":[2147483647,0,0,1,1,2,2,3,3,4,4,5,5,6,6,7,7,8,8,9,9,10,10,11,11,12,12,13,13,14,14,15,15,16,16,17,17,18,18,19,19,21,21,22,22,23,23,26,26,27,27,29,29,30,30,32,32,33,33,35,35,36,36,38,38,41,41,42,42,43,43,52,52,53,53,54,54,63,63,64,64,65,65,66,66,67,67,68,68,69,69,73,73,75,75,78,78,81,81,82,82,86,86,87,87,89,89,90,90,92,92,97,97,100,100,104,104,105,105,109,109,110,110,115,115,116,116,118,118],"right_children":[2,4,6,8,10,12,14,16,18,20,22,24,26,28,30,32,34,36,38,40,-1,42,44,46,-1,-1,48,50,-1,52,54,-1,56,58,-1,60,62,-1,64,-1,-1,66,68,70,-1,-1,-1,-1,-1,-1,-1,-1,72,74,76,-1,-1,-1,-1,-1,-1,-1,-1,78,80,82,84,86,88,90,-1,-1,-1,92,-1,94,-1,-1,96,-1,-1,98,100,-1,-1,-1,102,104,-1,106,108,-1,110,-1,-1,-1,-1,112,-1,-1,114,-1,-1,-1,116,118,-1,-1,-1,120,122,-1,-1,-1,-1,124,126,-1,128,-1,-1,-1,-1,-1,-1,-1,-1,-1,-1],"split_conditions":[3.5125E1,1.25E1,9.2778824E1,1.3235E2,1.55E1,3.582E1,1.5E0,-2.25E1,6.086E0,3.4425525E2,1.05E1,3.5660004E1,3.5940002E1,1.265E2,6.5E0,1.309E2,9.316698E1,3.5E0,3.4415045E2,6.2118473E1,6.9415516E-1,3.5E0,3.4315002E1,3.5E0,6.5125215E-1,2.3542786E-1,3.722E1,8E0,4.604279E-1,6.2869997E0,2.55E1,3.4213948E-1,1.15E1,3.4865222E2,2.0988667E-1,6.0605E0,1.35E1,2.5158355E-1,1.55E1,1.3886109E-1,4.9949694E-1,2.5E0,1.85E1,2.85E1,4.714534E-1,2.9073012E-1,4.654509E-1,3.962636E-1,1.928717E-1,2.7603543E-1,1.4915772E-1,4.4347477E-1,1.2605E2,-1.65E1,1.3225E2,4.37923E-1,6.620514E-1,6.176526E-1,1.4383088E-1,4.051969E-1,5.772668E-1,4.984985E-1,5.9381187E-1,8.1670074E1,6.0880003E0,3.479278E2,2.65E1,6.142E0,2.75E1,2.05E1,7.4066854E-1,3.5777983E-1,5.997073E-1,3.4384747E2,2.939445E-1,7.5E0,4.1142985E-1,1.7617416E-1,9.5E0,1.3814819E-1,3.7008104E-1,3.463372E2,2.15E1,7.497936E-1,5.0907385E-1,4.3938872E-1,3.448022E2,6.5E0,4.096047E-1,5.943E0,1.3395001E2,1.4799194E-1,1.261E2,1.974167E-1,7.3077524E-1,5.3011465E-1,2.8090385E-1,6.0594997E0,3.2457837E-1,3.936704E-1,1.336E2,1.5479584E-1,3.8124338E-1,5.555333E-1,3.4601678E2,3.457951E2,6.6914505E-1,1.5970536E-1,3.9767015E-1,6.5E0,3.4613464E2,2.0731914E-1,5.1309776E-1,6.856616E-1,3.6848757E-1,2.35E1,2.25E1,1.304184E-1,3.4657922E2,1.5069886E-1,6.767563E-1,5.047355E-1,3.9732465E-1,3.9461204E-1,1.049942E-1,4.2532492E-1,5.788795E-1,5.1347965E-1,8.897858E-2],"split_indices":[2,7,5,0,7,2,8,4,1,3,8,2,2,0,8,0,5,7,3,5,0,8,2,7,0,0,2,6,0,1,7,0,8,3,0,1,6,0,6,0,0,8,7,7,0,0,0,0,0,0,0,0,0,4,0,0,0,0,0,0,0,0,0,5,1,3,7,1,7,7,0,0,0,3,0,6,0,0,7,0,0,3,7,0,0,0,3,8,0,1,0,0,0,0,0,0,0,1,0,0,0,0,0,0,3,3,0,0,0,6,3,0,0,0,0,7,7,0,3,0,0,0,0,0,0,0,0,0,0],"split_type":[0,0,0,0,0,0,0,0,0,0,0,0,0,0,0,0,0,0,0,0,0,0,0,0,0,0,0,0,0,0,0,0,0,0,0,0,0,0,0,0,0,0,0,0,0,0,0,0,0,0,0,0,0,0,0,0,0,0,0,0,0,0,0,0,0,0,0,0,0,0,0,0,0,0,0,0,0,0,0,0,0,0,0,0,0,0,0,0,0,0,0,0,0,0,0,0,0,0,0,0,0,0,0,0,0,0,0,0,0,0,0,0,0,0,0,0,0,0,0,0,0,0,0,0,0,0,0,0,0],"sum_hessian":[1.541E3,1.1E3,4.41E2,4.14E2,6.86E2,9E1,3.51E2,1.25E2,2.89E2,1.18E2,5.68E2,3.5E1,5.5E1,6.8E1,2.83E2,5E1,7.5E1,2.07E2,8.2E1,2E1,9.8E1,4.04E2,1.64E2,2.6E1,9E0,1.1E1,4.4E1,1.1E1,5.7E1,1.32E2,1.51E2,1.8E1,3.2E1,7.3E1,2E0,6.2E1,1.45E2,1.8E1,6.4E1,1E0,1.9E1,1.54E2,2.5E2,1.26E2,3.8E1,8E0,1.8E1,4E1,4E0,6E0,5E0,3.5E1,9.7E1,1.19E2,3.2E1,2.7E1,5E0,7.2E1,1E0,5.4E1,8E0,9E1,5.5E1,4.1E1,2.3E1,7.9E1,7.5E1,5.7E1,1.93E2,1E2,2.6E1,6E0,9.1E1,1.05E2,1.4E1,2.1E1,1.1E1,3E0,3.8E1,4E0,1.9E1,4E1,3.9E1,4.1E1,3.4E1,2.8E1,2.9E1,1.48E2,4.5E1,8.5E1,1.5E1,2E0,1.03E2,1E0,2E1,3.2E1,6E0,1.7E1,2.3E1,1.1E1,2.8E1,7E0,2.2E1,7.6E1,7.2E1,1.3E1,7.2E1,7E0,8E0,6E0,9.7E1,2E0,1.5E1,2.4E1,4E0,2.1E1,5.1E1,3E0,1E1,1E0,5E0,3.7E1,6E1,1.6E1,5E0,2.5E1,2.6E1,9E0,1E0],"tree_param":{"num_deleted":"0","num_feature":"10","num_nodes":"129","size_leaf_vector":"0"}},{"base_weights":[4.728788E0,4.8622327E0,4.3856845E0,4.5231814E0,5.0599675E0,3.783651E0,4.528865E0,3.6417198E0,4.6023693E0,5.9851565E0,4.8575816E0,4.532258E0,3.2348387E0,3.8648438E0,4.674247E0,4.163262E0,2.873609E0,5.521825E0,4.4891076E0,4.510685E0,6.273071E0,4.640699E0,5.3604903E0,3.8480473E0,5.9264007E0,2.1384685E0,3.455319E0,2.1558254E0,4.1517987E0,3.8701072E0,4.7864566E0,2.9395278E0,8.435364E-1,3.9583857E0,4.686854E0,2.2175446E0,4.743779E0,5.229013E0,4.2589087E0,5.6577144E0,4.2551565E0,2.6488647E0,4.2135525E0,6.201694E0,1.7243805E0,3.5760305E0,1.7744201E0,2.5237558E0,1.3672689E0,4.095932E0,2.2203717E0,4.8751698E0,3.309879E0,6.721302E0,3.6751063E0,5.5268536E0,4.307977E0,4.5682163E0,5.855786E0,5.476308E0,4.1180396E0,5.324816E0,6.693455E0,4.368553E0,3.1398203E0,1.3812662E0,4.222434E0,4.201717E0,5.1512046E0,3.3969727E0,9.581909E-1,3.8987222E0,2.1507657E0,3.0993915E0,4.5116487E0,3.674087E0,5.3704934E0,6.766001E0,4.5962195E0,4.6941195E0,8.018173E0,3.3804739E0,4.32094E0,5.738826E0,2.766716E0,7.8125E-3,3.2475512E0,2.0738423E0,4.3295608E0,5.3382425E0,3.9426317E0,2.727773E0,1.52712E0,3.2445455E0,8.0825806E-1,3.2200713E0,4.6808543E0,4.45579E0,2.934723E0,3.5758336E0,5.927922E0,2.7008781E0,3.797565E0,3.4532747E0,5.994118E0,1.4573174E0,3.623213E0,4.009313E0,5.7540407E0,5.164705E0,8.179591E0,1.1465302E0,4.011364E0,2.917328E-1,1.6450768E0,3.5731528E0,2.0538983E0,3.8676322E0,5.027613E0,3.1482885E0,1.4125214E0,4.560918E0,3.0753994E0,1.2063599E0,4.145073E0,6.5917983E0,4.9138794E0,1.4316406E0,6.075236E0,5.405324E0,4.1485934E0,3.920393E0,8.522186E-1,5.291265E0,3.9061813E0],"categories":[],"categories_nodes":[],"categories_segments":[],"categories_sizes":[],"default_left":[1,1,1,1,1,1,1,1,1,1,1,1,1,1,1,0,1,0,1,1,0,1,1,1,1,0,1,1,0,1,1,0,0,1,1,0,0,1,1,1,0,0,0,0,0,1,0,0,0,1,0,1,1,0,1,0,1,1,1,1,1,1,0,0,1,0,0,1,1,0,0,0,1,1,1,1,1,0,0,0,0,1,0,1,1,0,0,0,1,1,1,0,1,0,0,1,1,0,0,0,0,1,1,1,1,0,0,0,1,1,0,0,0,0,0,0,0,1,1,0,0,0,0,0,0,0,0,0,0,0,0,0,0,0,0],"id":42,"left_children":[1,3,5,7,9,11,13,15,17,19,21,23,25,27,29,-1,31,-1,33,35,-1,37,39,41,43,-1,45,47,-1,49,51,-1,-1,53,55,-1,-1,57,59,61,-1,-1,-1,-1,-1,63,-1,-1,-1,65,-1,67,69,-1,71,-1,73,75,77,79,81,83,-1,-1,85,-1,-1,87,89,-1,-1,-1,91,93,95,97,99,-1,-1,-1,-1,101,-1,103,105,-1,-1,-1,107,109,111,-1,113,-1,-1,115,117,-1,-1,-1,-1,119,121,123,125,-1,-1,-1,127,129,-1,-1,-1,-1,-1,-1,-1,131,133,-1,-1,-1,-1,-1,-1,-1,-1,-1,-1,-1,-1,-1,-1,-1,-1],"loss_changes":[4.928125E1,5.092578E1,2.0964844E1,1.2207031E1,9.95625E1,2.2725708E1,1.5916016E1,3.659912E0,1.4473145E1,2.2222656E1,3.7186523E1,1.1534912E1,6.147644E0,2.4887817E1,7.102051E0,0E0,6.297302E-2,0E0,1.7234375E1,1.774353E0,0E0,6.869824E1,3.01333E1,6.7315674E-1,8.738098E-1,0E0,2.7853394E0,3.0952454E-2,0E0,5.807556E0,1.5957031E1,0E0,0E0,5.278369E1,5.3526855E1,0E0,0E0,3.74458E1,2.0493164E1,8.147705E0,0E0,0E0,0E0,0E0,0E0,4.5751953E-1,0E0,0E0,0E0,5.843628E0,0E0,2.092627E1,2.2692871E-1,0E0,2.2974487E1,0E0,2.8355225E1,3.7655396E1,5.603418E1,8.090759E0,1.966333E1,9.108911E1,0E0,0E0,1.0097046E1,0E0,0E0,1.0607666E1,1.4668945E1,0E0,0E0,0E0,8.7223816E-1,6.6894836E0,1.6615723E1,1.0619995E1,1.8818604E1,0E0,0E0,0E0,0E0,5.0497437E0,0E0,2.9480469E1,1.2663757E1,0E0,0E0,0E0,7.494751E0,2.382788E1,2.053833E-1,0E0,8.315792E-1,0E0,0E0,8.9619446E-1,1.6086182E1,0E0,0E0,0E0,0E0,9.387146E0,3.062622E0,1.2098068E1,1.6677002E1,0E0,0E0,0E0,5.185791E0,9.115723E0,0E0,0E0,0E0,0E0,0E0,0E0,0E0,3.3410034E0,4.463135E0,0E0,0E0,0E0,0E0,0E0,0E0,0E0,0E0,0E0,0E0,0E0,0E0,0E0,0E0,0E0,0E0],"parents":[2147483647,0,0,1,1,2,2,3,3,4,4,5,5,6,6,7,7,8,8,9,9,10,10,11,11,12,12,13,13,14,14,16,16,18,18,19,19,21,21,22,22,23,23,24,24,26,26,27,27,29,29,30,30,33,33,34,34,37,37,38,38,39,39,45,45,49,49,51,51,52,52,54,54,56,56,57,57,58,58,59,59,60,60,61,61,64,64,67,67,68,68,72,72,73,73,74,74,75,75,76,76,81,81,83,83,84,84,88,88,89,89,90,90,92,92,95,95,96,96,101,101,102,102,103,103,104,104,108,108,109,109,117,117,118,118],"right_children":[2,4,6,8,10,12,14,16,18,20,22,24,26,28,30,-1,32,-1,34,36,-1,38,40,42,44,-1,46,48,-1,50,52,-1,-1,54,56,-1,-1,58,60,62,-1,-1,-1,-1,-1,64,-1,-1,-1,66,-1,68,70,-1,72,-1,74,76,78,80,82,84,-1,-1,86,-1,-1,88,90,-1,-1,-1,92,94,96,98,100,-1,-1,-1,-1,102,-1,104,106,-1,-1,-1,108,110,112,-1,114,-1,-1,116,118,-1,-1,-1,-1,120,122,124,126,-1,-1,-1,128,130,-1,-1,-1,-1,-1,-1,-1,132,134,-1,-1,-1,-1,-1,-1,-1,-1,-1,-1,-1,-1,-1,-1,-1,-1],"split_conditions":[3.5125E1,1.25E1,9.2778824E1,8.194245E1,1.55E1,3.582E1,1.5E0,1.3335E2,1.5E0,3.4450885E2,1.05E1,3.5660004E1,3.5940002E1,1.265E2,4.5E0,4.163262E-1,9.5E0,5.521825E-1,3.5E0,6.259346E1,6.273071E-1,3.5E0,3.4315002E1,3.5E0,3.4574625E2,2.1384685E-1,3.722E1,8E0,4.1517988E-1,3.752E1,1.3325E2,2.939528E-1,8.435364E-2,1.3087946E2,3.444884E2,2.2175446E-1,4.7437793E-1,2.5E0,1.2615E2,2.85E1,4.2551565E-1,2.6488647E-1,4.2135525E-1,6.201694E-1,1.7243806E-1,8.150603E1,1.7744201E-1,2.5237557E-1,1.367269E-1,3.4384747E2,2.2203718E-1,1.2705E2,9.30394E1,6.721302E-1,6.1105003E0,5.526854E-1,3.4501584E2,3.479278E2,2.65E1,3.4394272E2,1.302E2,2.05E1,6.6934556E-1,4.3685532E-1,3.4482977E2,1.3812663E-1,4.2224342E-1,5.5E0,3.4926334E2,3.3969727E-1,9.581909E-2,3.8987222E-1,3.4314505E2,1.3882E2,1.3125E2,3.463372E2,2.15E1,6.7660016E-1,4.5962197E-1,4.6941194E-1,8.0181736E-1,3.4480096E2,4.32094E-1,3.457951E2,1.3395001E2,7.8125E-4,3.2475513E-1,2.0738423E-1,6.4145E0,3.4910822E2,9.281268E1,2.727773E-1,1.325E2,3.2445455E-1,8.0825806E-2,1.304E2,9.278299E1,4.4557902E-1,2.934723E-1,3.5758337E-1,5.927922E-1,6.21095E0,1.2795E2,1.333E2,1.15E1,1.4573173E-1,3.6232132E-1,4.0093133E-1,6.5E0,1E1,8.1795913E-1,1.1465301E-1,4.011364E-1,2.917328E-2,1.6450767E-1,3.5731527E-1,2.0538984E-1,9.2591705E1,7.5E0,3.1482884E-1,1.4125215E-1,4.560918E-1,3.0753994E-1,1.2063599E-1,4.145073E-1,6.5917987E-1,4.9138793E-1,1.4316407E-1,6.075236E-1,5.405324E-1,4.1485935E-1,3.920393E-1,8.5221864E-2,5.291265E-1,3.9061815E-1],"split_indices":[2,7,5,5,7,2,8,0,7,3,8,2,2,0,7,0,7,0,7,5,0,8,2,7,3,0,2,6,0,2,0,0,0,0,3,0,0,8,0,7,0,0,0,0,0,5,0,0,0,3,0,0,5,0,1,0,3,3,7,3,0,7,0,0,3,0,0,7,3,0,0,0,3,0,0,3,7,0,0,0,0,3,0,3,0,0,0,0,1,3,5,0,0,0,0,0,5,0,0,0,0,1,0,0,8,0,0,0,6,8,0,0,0,0,0,0,0,5,7,0,0,0,0,0,0,0,0,0,0,0,0,0,0,0,0],"split_type":[0,0,0,0,0,0,0,0,0,0,0,0,0,0,0,0,0,0,0,0,0,0,0,0,0,0,0,0,0,0,0,0,0,0,0,0,0,0,0,0,0,0,0,0,0,0,0,0,0,0,0,0,0,0,0,0,0,0,0,0,0,0,0,0,0,0,0,0,0,0,0,0,0,0,0,0,0,0,0,0,0,0,0,0,0,0,0,0,0,0,0,0,0,0,0,0,0,0,0,0,0,0,0,0,0,0,0,0,0,0,0,0,0,0,0,0,0,0,0,0,0,0,0,0,0,0,0,0,0,0,0,0,0,0,0],"sum_hessian":[1.541E3,1.1E3,4.41E2,4.14E2,6.86E2,9E1,3.51E2,3.8E1,3.76E2,1.18E2,5.68E2,3.5E1,5.5E1,6.8E1,2.83E2,2E1,1.8E1,3.6E1,3.4E2,2.2E1,9.6E1,4.04E2,1.64E2,2.6E1,9E0,1.1E1,4.4E1,1.1E1,5.7E1,3.9E1,2.44E2,1.7E1,1E0,9.8E1,2.42E2,3E0,1.9E1,1.54E2,2.5E2,1.26E2,3.8E1,8E0,1.8E1,8E0,1E0,4E1,4E0,6E0,5E0,3.3E1,6E0,2.28E2,1.6E1,7E0,9.1E1,7.1E1,1.71E2,7.9E1,7.5E1,2.2E1,2.28E2,1E2,2.6E1,1.1E1,2.9E1,2E0,3.1E1,7.1E1,1.57E2,1.5E1,1E0,7.8E1,1.3E1,2.7E1,1.44E2,4E1,3.9E1,4.1E1,3.4E1,1.9E1,3E0,5.3E1,1.75E2,8.5E1,1.5E1,1E0,2.8E1,5E0,6.6E1,1.33E2,2.4E1,5E0,8E0,2.5E1,2E0,1.9E1,1.25E2,1.7E1,2.3E1,1.1E1,2.8E1,2.3E1,3E1,1E1,7.5E1,7E0,8E0,5.7E1,9E0,1.28E2,5E0,1E0,2.3E1,1E0,7E0,1.3E1,6E0,4.1E1,8.4E1,1.6E1,7E0,1.2E1,1.8E1,3E0,7E0,4.5E1,3E1,1E0,8E0,1E2,2.8E1,4E1,1E0,6.5E1,1.9E1],"tree_param":{"num_deleted":"0","num_feature":"10","num_nodes":"135","size_leaf_vector":"0"}},{"base_weights":[4.271769E0,4.4690123E0,4.0793433E0,4.1216154E0,4.673816E0,3.3955133E0,4.2552543E0,3.2384722E0,4.2898316E0,4.2760234E0,5.1164775E0,4.4361925E0,3.0545676E0,4.100742E0,5.0178113E0,3.3685453E0,1.7231802E0,3.710379E0,4.5439157E0,4.628128E0,3.8530743E0,4.8054667E0,5.8573627E0,3.2238111E0,4.855628E0,2.1333673E0,3.2139363E0,4.3097324E0,3.2711978E0,2.0151417E0,3.4873421E0,4.66565E0,3.2383027E0,4.697301E0,1.9316833E0,4.312335E0,3.123863E0,5.4570923E0,4.1266932E0,5.0082054E0,6.563105E0,2.4636662E0,1.5790988E0,2.097313E0,3.318942E0,4.143524E0,5.658997E0,3.398206E0,2.571106E0,4.744451E0,2.7231293E0,5.1365814E0,3.9333556E0,-3.4736124E-1,3.5668335E0,3.301669E0,4.6987224E0,2.711722E0,3.9899597E0,4.3506193E0,6.070785E0,5.097048E0,1.171463E0,2.771454E-1,1.6815796E0,2.9565277E0,4.2725015E0,6.4060974E-1,2.6356003E0,2.3173828E0,4.799607E0,1.1507467E0,3.0554657E0,4.399587E0,6.0082526E0,9.7787476E-1,3.9729078E0,9.4567263E-1,2.8971317E0,4.6422396E0,1.8874085E0,4.537152E0,1.9572372E0,6.309191E0,3.390147E0,3.6485991E0,2.156625E0,5.13346E0,4.0266347E0,5.0024495E0,3.9967184E0,4.7990365E0,2.8678944E0,7.2793226E0,3.9976807E0,4.173523E0,1.2155966E0,4.0506E0,1.6324768E0,2.556341E0,3.6626586E-1,4.2887616E0,3.2314105E0,5.010462E0,2.5283935E0,2.0183716E0,7.459466E0,2.7151852E0,7.4157715E-3,6.649272E-1,-5.448405E-2,3.6033936E0,4.646363E0,1.9778701E0,3.4566624E0,-1.3069153E-1,4.8965454E-2,5.768261E0,3.2815115E0,3.7600243E0,5.092353E0,2.2439332E0,8.1824493E-1],"categories":[],"categories_nodes":[],"categories_segments":[],"categories_sizes":[],"default_left":[1,1,1,1,1,1,1,1,1,1,1,1,1,1,0,1,0,0,1,1,1,1,1,0,0,1,1,1,1,0,0,1,0,1,1,1,1,1,0,1,0,0,1,0,0,1,0,0,1,1,1,1,1,0,0,0,0,1,1,1,1,0,0,0,0,1,1,0,0,0,1,0,0,1,1,0,0,0,0,0,0,0,0,0,1,1,1,0,1,0,0,1,0,1,0,0,0,0,0,1,1,1,1,0,0,0,0,0,0,0,1,1,1,1,0,0,0,0,0,0,0,0,0],"id":43,"left_children":[1,3,5,7,9,11,13,15,17,19,21,23,25,27,-1,29,-1,-1,31,33,35,37,39,-1,-1,41,43,45,47,-1,-1,49,-1,51,53,55,57,59,-1,61,-1,-1,63,-1,-1,65,-1,-1,67,69,71,73,75,-1,-1,-1,-1,77,79,81,83,-1,-1,-1,-1,85,87,-1,-1,-1,89,-1,-1,91,93,-1,-1,-1,-1,-1,-1,-1,-1,-1,95,97,99,-1,101,-1,-1,103,-1,105,-1,-1,-1,-1,-1,107,109,111,113,-1,-1,-1,-1,-1,-1,-1,115,117,119,121,-1,-1,-1,-1,-1,-1,-1,-1,-1],"loss_changes":[4.029492E1,3.4168945E1,8.082422E1,2.8743652E1,6.0001953E1,4.570337E1,5.318164E1,4.050293E0,1.8181152E1,1.9546875E1,2.1393555E1,4.178528E0,1.2082153E1,7.709277E1,0E0,2.076416E-1,0E0,0E0,1.0480225E1,1.5547119E1,2.6716675E1,4.6922363E1,2.4885254E0,0E0,0E0,1.3726807E-1,5.7022705E0,7.006836E1,1.0438232E0,0E0,0E0,9.275879E0,0E0,2.2750977E1,1.9871883E1,1.2212402E1,7.028076E0,2.5874023E1,0E0,4.595825E0,0E0,0E0,1.0016365E0,0E0,0E0,4.477881E1,0E0,0E0,9.2622375E-1,7.351074E0,6.6441345E-1,2.3674805E1,2.0765991E0,0E0,0E0,0E0,0E0,9.375641E0,1.0438507E1,4.9595337E0,8.647583E0,0E0,0E0,0E0,0E0,1.4274963E1,5.045459E1,0E0,0E0,0E0,1.8295898E0,0E0,0E0,1.4381165E1,5.523352E1,0E0,0E0,0E0,0E0,0E0,0E0,0E0,0E0,0E0,5.1476135E0,9.597107E0,1.4092033E1,0E0,4.1588867E1,0E0,0E0,4.134033E0,0E0,2.9508667E0,0E0,0E0,0E0,0E0,0E0,6.8628616E0,6.6453654E-1,3.1539795E1,1.2928467E1,0E0,0E0,0E0,0E0,0E0,0E0,0E0,3.0050248E-2,3.1243225E1,3.06604E1,2.1748505E0,0E0,0E0,0E0,0E0,0E0,0E0,0E0,0E0,0E0],"parents":[2147483647,0,0,1,1,2,2,3,3,4,4,5,5,6,6,7,7,8,8,9,9,10,10,11,11,12,12,13,13,15,15,18,18,19,19,20,20,21,21,22,22,25,25,26,26,27,27,28,28,31,31,33,33,34,34,35,35,36,36,37,37,39,39,42,42,45,45,48,48,49,49,50,50,51,51,52,52,57,57,58,58,59,59,60,60,65,65,66,66,70,70,73,73,74,74,84,84,85,85,86,86,88,88,91,91,93,93,99,99,100,100,101,101,102,102,110,110,111,111,112,112,113,113],"right_children":[2,4,6,8,10,12,14,16,18,20,22,24,26,28,-1,30,-1,-1,32,34,36,38,40,-1,-1,42,44,46,48,-1,-1,50,-1,52,54,56,58,60,-1,62,-1,-1,64,-1,-1,66,-1,-1,68,70,72,74,76,-1,-1,-1,-1,78,80,82,84,-1,-1,-1,-1,86,88,-1,-1,-1,90,-1,-1,92,94,-1,-1,-1,-1,-1,-1,-1,-1,-1,96,98,100,-1,102,-1,-1,104,-1,106,-1,-1,-1,-1,-1,108,110,112,114,-1,-1,-1,-1,-1,-1,-1,116,118,120,122,-1,-1,-1,-1,-1,-1,-1,-1,-1],"split_conditions":[6.5E0,2.5E0,8.5E0,1.285E2,1.307E2,5.8780003E0,2.55E1,3.7555E1,8.5E0,1.27850006E2,3.4819995E2,3.4309872E2,3.5E0,3.482018E2,5.0178117E-1,6.0810003E0,1.7231803E-1,3.710379E-1,3.507661E2,3.4997052E2,-1.95E1,3.5E0,7.5E0,3.223811E-1,4.855628E-1,3.4314505E2,3.4358105E2,3.4768622E2,6.4329996E0,2.0151417E-1,3.4873423E-1,1.341E2,3.2383028E-1,1.35E1,3.5035083E2,6.1375E0,1.9E1,1.3E1,4.1266933E-1,3.4865222E2,6.563105E-1,2.4636662E-1,6.1665E0,2.097313E-1,3.3189422E-1,8.304242E1,5.658997E-1,3.398206E-1,9.112804E1,6.259346E1,3.4735455E2,3.4389886E2,1.8E1,-3.4736123E-2,3.5668334E-1,3.301669E-1,4.6987224E-1,3.447561E2,3.449822E2,3.471363E2,3.4584964E2,5.0970477E-1,1.17146306E-1,2.771454E-2,1.6815796E-1,-1.95E1,3.445423E2,6.406098E-2,2.6356003E-1,2.3173828E-1,6.393E0,1.1507467E-1,3.0554658E-1,-1.95E1,2.7E1,9.778748E-2,3.972908E-1,9.456726E-2,2.8971317E-1,4.6422395E-1,1.8874085E-1,4.5371518E-1,1.9572373E-1,6.3091916E-1,9.298509E1,6.4700003E0,1.55E1,5.13346E-1,2E1,5.00245E-1,3.9967185E-1,6.386E0,2.8678945E-1,1.255E2,3.9976808E-1,4.173523E-1,1.2155966E-1,4.0506002E-1,1.6324769E-1,8.183931E1,3.4459607E2,5.5E0,6.1535E0,5.010462E-1,2.5283936E-1,2.0183717E-1,7.459466E-1,2.7151853E-1,7.415772E-4,6.649272E-2,3.452785E2,5.8415003E0,5.9300003E0,1.75E1,3.4566626E-1,-1.3069153E-2,4.8965453E-3,5.768261E-1,3.2815117E-1,3.7600243E-1,5.092353E-1,2.2439332E-1,8.18245E-2],"split_indices":[8,8,8,0,0,1,7,2,7,0,3,3,7,3,0,1,0,0,3,3,4,8,7,0,0,3,3,3,1,0,0,0,0,6,3,1,7,7,0,3,0,0,1,0,0,5,0,0,5,5,3,3,7,0,0,0,0,3,3,3,3,0,0,0,0,4,3,0,0,0,1,0,0,4,7,0,0,0,0,0,0,0,0,0,5,1,7,0,7,0,0,1,0,0,0,0,0,0,0,5,3,7,1,0,0,0,0,0,0,0,3,1,1,6,0,0,0,0,0,0,0,0,0],"split_type":[0,0,0,0,0,0,0,0,0,0,0,0,0,0,0,0,0,0,0,0,0,0,0,0,0,0,0,0,0,0,0,0,0,0,0,0,0,0,0,0,0,0,0,0,0,0,0,0,0,0,0,0,0,0,0,0,0,0,0,0,0,0,0,0,0,0,0,0,0,0,0,0,0,0,0,0,0,0,0,0,0,0,0,0,0,0,0,0,0,0,0,0,0,0,0,0,0,0,0,0,0,0,0,0,0,0,0,0,0,0,0,0,0,0,0,0,0,0,0,0,0,0,0],"sum_hessian":[1.541E3,7.5E2,7.91E2,2.86E2,4.64E2,1.66E2,6.25E2,4.9E1,2.37E2,2.5E2,2.14E2,3.8E1,1.28E2,5.25E2,1E2,4.4E1,5E0,7.7E1,1.6E2,1.31E2,1.19E2,1.56E2,5.8E1,1.2E1,2.6E1,2.1E1,1.07E2,4.16E2,1.09E2,5E0,3.9E1,1.44E2,1.6E1,1.27E2,4E0,7E1,4.9E1,7.6E1,8E1,3E1,2.8E1,1.1E1,1E1,1.1E1,9.6E1,3.74E2,4.2E1,8.9E1,2E1,1.37E2,7E0,7.7E1,5E1,2E0,2E0,2.2E1,4.8E1,3.6E1,1.3E1,3E1,4.6E1,2.9E1,1E0,1E0,9E0,3.9E1,3.35E2,1E0,1.9E1,4E0,1.33E2,2E0,5E0,4.5E1,3.2E1,1E0,4.9E1,4E0,3.2E1,9E0,4E0,2.7E1,3E0,4.1E1,5E0,1.9E1,2E1,7E1,2.65E2,1.02E2,3.1E1,3.4E1,1.1E1,1.8E1,1.4E1,3E0,2E0,1.5E1,4E0,1.6E1,4E0,1.96E2,6.9E1,3E1,4E0,1E0,1.7E1,1.5E1,1E0,2E0,2E0,7.1E1,1.25E2,1.2E1,5.7E1,1E0,1E0,7E0,6.4E1,4.5E1,8E1,9E0,3E0],"tree_param":{"num_deleted":"0","num_feature":"10","num_nodes":"123","size_leaf_vector":"0"}},{"base_weights":[3.8568566E0,4.037464E0,3.680729E0,4.1465917E0,3.4992113E0,3.066683E0,3.8386602E0,4.0508127E0,5.4671288E0,3.561857E0,1.5795695E0,4.013286E0,2.7567282E0,3.7325165E0,4.7954555E0,3.9214242E0,4.671461E0,2.577586E0,5.81625E0,3.59275E0,1.705986E0,2.9262226E0,4.3880467E0,1.9401342E0,2.897546E0,4.080498E0,3.4710295E0,5.1176744E0,3.106959E0,1.6058E0,3.9469707E0,5.095101E0,3.6781979E0,5.999161E0,1.9264526E0,2.2378285E0,1.439001E0,1.103653E0,2.9382892E0,3.1302617E0,4.2453923E0,2.3428411E0,3.596515E0,7.362793E-1,2.5197346E0,2.7260437E0,3.994026E0,5.288034E0,3.0835648E0,2.632904E-1,1.5302429E0,2.9746978E0,1.6151733E0,5.8938355E0,2.6460292E0,3.5611796E0,4.6536493E0,1.1869316E0,2.5809252E0,3.6972764E0,2.6814399E0,4.053416E0,3.0394769E0,2.735724E0,5.429044E0,1.203425E0,3.25708E0,3.829643E0,2.4386292E0,4.7817583E0,1.865897E0,3.605216E0,6.5621686E0,6.0858154E-1,2.7271986E0,4.8592234E0,3.9788177E0,2.4589233E0,5.5580726E0,3.4130248E-1,1.5918236E0,3.683658E0,7.8430516E-1,4.8790007E0,2.859108E0,7.468445E-1,3.109019E0,3.929761E0,3.2945266E0,7.052297E0,1.8106995E0,3.6700613E0,4.1714525E0,4.7982845E0,6.45784E0,6.205953E-1,-5.1757812E-2,1.5287272E0,4.0312996E0,3.1991577E-1,8.7128556E-1,4.3257027E0,5.402314E0,2.390747E0,4.032086E0,4.8803377E0,3.1460567E0,4.7171965E0,3.4718175E0,3.5734859E0,4.397986E0,-1.2416077E-1,4.6524048E-2,4.7776237E0,2.9547389E0,3.010783E0,1.1685547E0,4.2192698E0,2.9600754E0,5.7104416E0,1.0399475E0,4.084728E0,3.0056477E0],"categories":[],"categories_nodes":[],"categories_segments":[],"categories_sizes":[],"default_left":[1,1,1,1,1,1,1,1,1,1,0,1,1,1,1,1,1,0,1,0,0,0,0,1,1,1,1,0,0,1,1,1,0,0,0,0,1,0,1,1,1,1,1,0,0,0,1,1,0,0,0,0,0,0,1,1,1,0,0,1,1,1,0,0,1,1,0,0,1,1,1,1,1,0,0,0,1,0,1,1,0,1,1,1,0,0,0,1,1,0,0,1,1,0,0,0,1,0,0,0,0,1,0,1,1,1,1,0,0,0,0,0,0,0,0,0,0,0,0,0,0,0,0],"id":44,"left_children":[1,3,5,7,9,11,13,15,17,19,-1,21,23,25,27,29,31,-1,33,-1,-1,-1,-1,35,37,39,41,-1,-1,43,45,47,-1,-1,-1,-1,49,-1,51,53,55,57,59,-1,-1,-1,61,63,-1,-1,-1,-1,-1,-1,65,67,69,-1,-1,71,73,75,-1,-1,77,79,-1,-1,81,83,85,87,89,-1,-1,-1,91,-1,93,95,-1,97,99,101,-1,-1,-1,103,105,-1,-1,107,109,-1,-1,-1,111,-1,-1,-1,-1,113,-1,115,117,119,121,-1,-1,-1,-1,-1,-1,-1,-1,-1,-1,-1,-1,-1,-1,-1,-1],"loss_changes":[3.4191406E1,2.9603516E1,6.503223E1,5.614453E1,1.036792E1,3.7934937E1,4.5676758E1,2.833789E1,2.4351318E1,1.2095947E0,0E0,3.0477295E0,9.21228E0,3.752002E1,1.6199463E1,2.247168E1,2.1233887E1,0E0,1.2633423E1,0E0,0E0,0E0,0E0,6.1820984E-2,4.650757E0,2.4002686E1,3.8434326E1,0E0,0E0,3.7075672E0,1.6746094E1,8.531982E0,0E0,0E0,0E0,0E0,7.771168E-1,0E0,2.53479E-1,3.659503E1,3.9294434E1,6.8439484E0,1.7378174E1,0E0,0E0,0E0,1.3814453E1,5.661865E0,0E0,0E0,0E0,0E0,0E0,0E0,2.6932983E1,1.4468689E1,3.4648193E1,0E0,0E0,4.596997E1,1.4703522E0,6.5742188E0,0E0,0E0,6.644287E0,3.4748745E0,0E0,0E0,3.4185135E1,7.7382812E0,7.4158764E0,1.3067871E1,3.5322266E0,0E0,0E0,0E0,8.481445E0,0E0,3.1951904E0,5.810152E-1,0E0,1.3286896E0,8.4796906E-2,8.192139E0,0E0,0E0,0E0,9.415405E0,1.7137817E1,0E0,0E0,1.7251953E1,1.6658691E1,0E0,0E0,0E0,2.7124152E-2,0E0,0E0,0E0,0E0,2.1818237E1,0E0,4.059765E0,9.984863E0,2.5940659E1,4.7246094E0,0E0,0E0,0E0,0E0,0E0,0E0,0E0,0E0,0E0,0E0,0E0,0E0,0E0,0E0,0E0,0E0],"parents":[2147483647,0,0,1,1,2,2,3,3,4,4,5,5,6,6,7,7,8,8,9,9,11,11,12,12,13,13,14,14,15,15,16,16,18,18,23,23,24,24,25,25,26,26,29,29,30,30,31,31,36,36,38,38,39,39,40,40,41,41,42,42,46,46,47,47,54,54,55,55,56,56,59,59,60,60,61,61,64,64,65,65,68,68,69,69,70,70,71,71,72,72,76,76,78,78,79,79,81,81,82,82,83,83,87,87,88,88,91,91,92,92,96,96,101,101,103,103,104,104,105,105,106,106],"right_children":[2,4,6,8,10,12,14,16,18,20,-1,22,24,26,28,30,32,-1,34,-1,-1,-1,-1,36,38,40,42,-1,-1,44,46,48,-1,-1,-1,-1,50,-1,52,54,56,58,60,-1,-1,-1,62,64,-1,-1,-1,-1,-1,-1,66,68,70,-1,-1,72,74,76,-1,-1,78,80,-1,-1,82,84,86,88,90,-1,-1,-1,92,-1,94,96,-1,98,100,102,-1,-1,-1,104,106,-1,-1,108,110,-1,-1,-1,112,-1,-1,-1,-1,114,-1,116,118,120,122,-1,-1,-1,-1,-1,-1,-1,-1,-1,-1,-1,-1,-1,-1,-1,-1],"split_conditions":[6.5E0,2.65E1,8.5E0,2.45E1,6.4884996E0,5.8780003E0,2.85E1,4.5E0,1.262E2,9.303636E1,1.5795694E-1,3.4309872E2,3.5E0,6.116E0,3.4892816E2,-2.55E1,3.5045E1,2.577586E-1,-1.65E1,3.59275E-1,1.7059861E-1,2.9262227E-1,4.388047E-1,3.4314505E2,6.3987274E1,1.3125E2,3.354E1,5.1176745E-1,3.1069592E-1,3.5063754E2,5.8225E0,9.304083E1,3.678198E-1,5.999161E-1,1.9264527E-1,2.2378285E-1,6.1665E0,1.10365294E-1,6.5275E0,5.846E0,5.9300003E0,-1.95E1,3.496801E2,7.3627934E-2,2.5197348E-1,2.7260438E-1,3.507661E2,-2.85E1,3.083565E-1,2.632904E-2,1.530243E-1,2.974698E-1,1.6151734E-1,5.8938354E-1,3.467584E2,3.109E1,3.482223E2,1.18693165E-1,2.5809252E-1,3.4919534E2,3.5003552E2,1.5E0,3.039477E-1,2.7357242E-1,3.4268207E2,3.4563684E2,3.25708E-1,3.829643E-1,8.5E0,2.6E1,3.4831274E2,6.2925E0,1.295E2,6.0858157E-2,2.7271986E-1,4.8592234E-1,1.3155E2,2.4589233E-1,-1.95E1,3.4459607E2,1.5918235E-1,3.4259146E2,3.4504092E2,3.4589502E2,2.8591082E-1,7.468445E-2,3.109019E-1,6.8388855E1,3.4452777E2,7.052297E-1,1.8106996E-1,3.445401E2,5.5E0,4.7982845E-1,6.45784E-1,6.205953E-2,3.452785E2,1.5287273E-1,4.0312997E-1,3.199158E-2,8.712856E-2,3.4520294E2,5.402314E-1,1.05E1,2.45E1,1.285E2,1.261E2,4.7171965E-1,3.4718177E-1,3.573486E-1,4.397986E-1,-1.2416077E-2,4.6524047E-3,4.7776237E-1,2.954739E-1,3.010783E-1,1.16855465E-1,4.2192698E-1,2.9600754E-1,5.7104415E-1,1.0399475E-1,4.0847278E-1,3.0056477E-1],"split_indices":[8,7,8,7,1,1,7,8,0,5,0,3,7,1,3,4,2,0,4,0,0,0,0,3,5,0,2,0,0,3,1,5,0,0,0,0,1,0,1,1,1,4,3,0,0,0,3,4,0,0,0,0,0,0,3,2,3,0,0,3,3,7,0,0,3,3,0,0,6,7,3,1,0,0,0,0,0,0,4,3,0,3,3,3,0,0,0,5,3,0,0,3,7,0,0,0,3,0,0,0,0,3,0,6,7,0,0,0,0,0,0,0,0,0,0,0,0,0,0,0,0,0,0],"split_type":[0,0,0,0,0,0,0,0,0,0,0,0,0,0,0,0,0,0,0,0,0,0,0,0,0,0,0,0,0,0,0,0,0,0,0,0,0,0,0,0,0,0,0,0,0,0,0,0,0,0,0,0,0,0,0,0,0,0,0,0,0,0,0,0,0,0,0,0,0,0,0,0,0,0,0,0,0,0,0,0,0,0,0,0,0,0,0,0,0,0,0,0,0,0,0,0,0,0,0,0,0,0,0,0,0,0,0,0,0,0,0,0,0,0,0,0,0,0,0,0,0,0,0],"sum_hessian":[1.541E3,7.5E2,7.91E2,6.18E2,1.32E2,1.66E2,6.25E2,5.8E2,3.8E1,1.27E2,5E0,3.8E1,1.28E2,5.67E2,5.8E1,4.86E2,9.4E1,5E0,3.3E1,1.24E2,3E0,1.2E1,2.6E1,2.1E1,1.07E2,2.37E2,3.3E2,4.7E1,1.1E1,6E0,4.8E2,6.3E1,3.1E1,3.1E1,2E0,1.1E1,1E1,3E0,1.04E2,3.8E1,1.99E2,3.5E1,2.95E2,4E0,2E0,2E1,4.6E2,5.6E1,7E0,1E0,9E0,1E2,4E0,4E0,3.4E1,7.8E1,1.21E2,7E0,2.8E1,2.63E2,3.2E1,4.3E2,3E1,4E0,5.2E1,1.1E1,2.3E1,6.1E1,1.7E1,1.15E2,6E0,2.57E2,6E0,1E0,3.1E1,3.1E1,3.99E2,3E0,4.9E1,4E0,7E0,9E0,8E0,1.08E2,7E0,4E0,2E0,1.2E2,1.37E2,5E0,1E0,1.61E2,2.38E2,3E1,1.9E1,2E0,2E0,2E0,7E0,2E0,6E0,5.7E1,5.1E1,9E0,1.11E2,9E0,1.28E2,2.2E1,1.39E2,7E1,1.68E2,1E0,1E0,4.1E1,1.6E1,5E0,4E0,9.2E1,1.9E1,7E0,2E0,1.3E1,1.15E2],"tree_param":{"num_deleted":"0","num_feature":"10","num_nodes":"123","size_leaf_vector":"0"}},{"base_weights":[3.482766E0,3.6431246E0,3.3263113E0,3.5529003E0,4.2287483E0,2.770225E0,3.4693468E0,3.29273E0,3.712878E0,4.616116E0,3.3218641E0,3.6307037E0,2.4886057E0,3.3738565E0,4.3298397E0,4.0869846E0,3.154545E0,2.4664118E0,3.772147E0,4.788094E0,2.8137589E0,1.786493E0,3.4773996E0,2.6560998E0,3.9654868E0,1.7644473E0,2.613077E0,3.6899793E0,3.136361E0,5.072893E0,3.5906796E0,3.3668263E0,2.6363966E0,3.0164342E0,3.8524184E0,2.5168762E0,4.9120183E0,2.032692E0,1.3114125E0,1.6791815E0,2.7016716E0,2.8461695E0,3.8360722E0,2.1190295E0,3.2494946E0,2.0679321E0,5.2305727E0,2.9002368E0,3.8078692E0,3.0870643E0,2.068423E0,3.0519433E0,7.9803467E-1,4.0821853E0,3.5008159E0,3.5101013E0,5.2367234E0,2.5012207E-1,1.3925292E0,2.9788184E0,2.3693886E0,5.4223266E0,2.396828E0,3.2184546E0,4.2045617E0,1.0830841E0,2.3317378E0,3.3866918E0,2.6534069E0,2.977751E0,1.447937E0,2.5305176E-1,3.8513136E0,3.2127695E0,1.2468033E0,1.6570231E0,2.3823512E0,4.161882E0,2.4934185E0,3.0597663E0,3.7553926E0,3.4388733E-1,3.0265484E0,4.8667908E-1,2.3984725E0,1.1008734E0,2.9449375E0,3.4528549E0,2.2322726E0,4.3173776E0,1.7343924E0,3.2679288E0,4.5773444E0,2.1458514E0,2.978424E0,2.5915825E0,3.5334058E0,5.239375E0,3.5091867E0,1.5717264E0,1.3601685E-1,5.922791E-1,1.91893E0,4.4497123E0,3.6009905E0,1.6569732E0,4.4504294E0,2.9693012E0,4.1971564E0,2.1024334E0,3.2761858E0,3.180298E-1,1.4525414E0,3.3708892E0,7.191128E-1,3.8457296E0,4.7540407E0,6.871033E-1,2.9017437E0,3.4201732E0,2.5011315E0,5.962143E0,1.9279785E0,6.8897504E-1,2.2348425E0,2.331702E0,3.560255E0,1.6440811E0,2.8288376E0,1.9046936E0,3.8910232E0,1.2411041E0,5.469139E0,1.3416405E0,3.7518392E0,3.0729532E0,4.602558E0,3.237095E0,4.452189E0,3.658493E0,2.0649037E0,4.3519454E0,2.580379E0,1.2389526E0,3.735527E0,5.7921344E-1,-4.916382E-2,4.013916E0,1.9250793E0,2.9859415E-1,7.966047E-1,4.311246E0,2.675859E0,4.8724813E0,2.5714538E0,3.5437496E0,2.6227667E0,1.7409261E0,6.6322937E0,2.4108245E0,1.275762E0,1.505361E0,2.7958262E0,4.039917E-1,1.72009E0,7.439499E-1,2.589264E0,2.6174371E0,4.734225E0,1.7937775E0,-9.847005E-3,3.7838783E0,9.788208E-1,3.2501788E0,2.9589844E-1,4.7614226E0,3.0998018E0,2.176886E0,8.166911E-1,-1.1795044E-1,4.4204712E-2,4.3608317E0,1.1391144E0,2.193463E0,3.6129103E0,3.0379486E0,2.0604126E0],"categories":[],"categories_nodes":[],"categories_segments":[],"categories_sizes":[],"default_left":[1,1,1,1,1,1,1,1,1,1,1,1,1,1,1,0,1,0,1,1,0,0,0,0,0,1,1,1,1,1,0,1,1,1,1,0,1,0,1,0,1,1,1,1,1,0,0,1,1,1,1,0,0,1,1,0,0,0,0,1,1,0,1,1,1,0,0,1,1,1,0,0,1,0,1,1,0,1,1,0,1,0,1,0,0,1,0,0,1,1,1,1,1,1,1,1,1,1,1,0,0,0,0,1,1,0,0,1,1,1,0,1,0,1,1,1,1,0,0,1,0,1,0,0,1,1,0,1,0,1,1,0,0,1,1,1,1,0,0,0,1,0,0,0,0,0,1,0,0,0,0,1,0,0,0,1,1,0,0,0,0,0,0,0,0,0,0,0,0,0,0,0,0,0,0,0,0,0,0,0,0,0,0,0,0,0,0],"id":45,"left_children":[1,3,5,7,9,11,13,15,17,19,21,23,25,27,29,-1,31,-1,33,35,-1,-1,-1,-1,-1,37,39,41,43,45,-1,47,49,51,53,-1,55,-1,57,-1,59,61,63,65,67,-1,-1,69,71,73,75,-1,-1,77,79,-1,-1,-1,-1,81,83,-1,85,87,89,-1,-1,91,93,95,-1,-1,97,-1,99,101,-1,103,105,-1,107,-1,109,-1,-1,111,-1,-1,113,115,117,119,121,123,125,127,129,131,133,-1,-1,-1,-1,135,137,-1,-1,139,141,143,-1,145,-1,147,149,151,153,-1,-1,155,-1,157,-1,-1,159,161,-1,163,-1,165,167,-1,-1,169,171,173,175,-1,-1,-1,177,-1,-1,-1,-1,-1,179,-1,-1,-1,-1,181,-1,-1,-1,183,185,-1,-1,-1,-1,-1,-1,-1,-1,-1,-1,-1,-1,-1,-1,-1,-1,-1,-1,-1,-1,-1,-1,-1,-1,-1,-1,-1,-1,-1,-1],"loss_changes":[2.6570312E1,2.4657227E1,5.338379E1,1.5119141E1,1.8039185E1,3.1433228E1,3.682959E1,1.5533936E1,2.0172852E1,6.3653564E0,1.4294128E0,2.1922607E0,7.017029E0,3.10708E1,1.4189697E1,0E0,1.5872314E1,0E0,1.1370605E1,3.6801758E0,0E0,0E0,0E0,0E0,0E0,7.835388E-3,4.399109E0,1.8421387E1,3.1210693E1,1.9766235E0,0E0,2.1058838E1,1.1532349E1,7.941284E-1,1.3095703E1,0E0,5.744629E0,0E0,5.9867096E-1,0E0,1.8748169E0,3.2149017E1,3.198462E1,5.4072723E0,1.5221436E1,0E0,0E0,4.694275E0,1.0916992E1,4.553528E0,4.434967E-1,0E0,0E0,1.4820068E1,4.3410645E0,0E0,0E0,0E0,0E0,5.1217346E0,1.5158081E0,0E0,2.161937E1,1.0554077E1,2.6510498E1,0E0,0E0,1.8554688E1,3.5066223E0,6.936096E0,0E0,0E0,1.7705933E1,0E0,1.2298999E0,3.883007E0,0E0,1.4327393E1,1.2268944E1,0E0,1.7055054E1,0E0,4.1853333E0,0E0,0E0,2.8416615E0,0E0,0E0,2.858831E1,5.607422E0,6.564081E0,1.7011719E1,5.8213043E1,1.9607697E0,4.492157E0,6.139557E0,8.897522E0,5.1547546E0,2.8627808E1,0E0,0E0,0E0,0E0,1.1108398E1,6.960388E0,0E0,0E0,1.3637878E1,1.7837524E0,1.3703743E1,0E0,5.0800127E-1,0E0,1.5698318E0,5.5419922E-2,2.168396E1,1.9470215E0,0E0,0E0,8.442871E0,0E0,2.2399872E1,0E0,0E0,1.1438828E0,3.078247E0,0E0,4.3619537E-1,0E0,3.635992E0,1.1234039E1,0E0,0E0,4.906125E0,1.3604736E0,6.420761E0,1.0546387E1,0E0,0E0,0E0,5.9838104E-1,0E0,0E0,0E0,0E0,0E0,2.4481485E-2,0E0,0E0,0E0,0E0,1.638794E0,0E0,0E0,0E0,6.3634033E0,2.7798462E-1,0E0,0E0,0E0,0E0,0E0,0E0,0E0,0E0,0E0,0E0,0E0,0E0,0E0,0E0,0E0,0E0,0E0,0E0,0E0,0E0,0E0,0E0,0E0,0E0,0E0,0E0,0E0,0E0,0E0,0E0],"parents":[2147483647,0,0,1,1,2,2,3,3,4,4,5,5,6,6,7,7,8,8,9,9,10,10,11,11,12,12,13,13,14,14,16,16,18,18,19,19,25,25,26,26,27,27,28,28,29,29,31,31,32,32,33,33,34,34,36,36,38,38,40,40,41,41,42,42,43,43,44,44,47,47,48,48,49,49,50,50,53,53,54,54,59,59,60,60,62,62,63,63,64,64,67,67,68,68,69,69,72,72,74,74,75,75,77,77,78,78,80,80,82,82,85,85,88,88,89,89,90,90,91,91,92,92,93,93,94,94,95,95,96,96,97,97,98,98,103,103,104,104,107,107,108,108,109,109,111,111,113,113,114,114,115,115,116,116,119,119,121,121,124,124,125,125,127,127,129,129,130,130,133,133,134,134,135,135,136,136,140,140,146,146,151,151,155,155,156,156],"right_children":[2,4,6,8,10,12,14,16,18,20,22,24,26,28,30,-1,32,-1,34,36,-1,-1,-1,-1,-1,38,40,42,44,46,-1,48,50,52,54,-1,56,-1,58,-1,60,62,64,66,68,-1,-1,70,72,74,76,-1,-1,78,80,-1,-1,-1,-1,82,84,-1,86,88,90,-1,-1,92,94,96,-1,-1,98,-1,100,102,-1,104,106,-1,108,-1,110,-1,-1,112,-1,-1,114,116,118,120,122,124,126,128,130,132,134,-1,-1,-1,-1,136,138,-1,-1,140,142,144,-1,146,-1,148,150,152,154,-1,-1,156,-1,158,-1,-1,160,162,-1,164,-1,166,168,-1,-1,170,172,174,176,-1,-1,-1,178,-1,-1,-1,-1,-1,180,-1,-1,-1,-1,182,-1,-1,-1,184,186,-1,-1,-1,-1,-1,-1,-1,-1,-1,-1,-1,-1,-1,-1,-1,-1,-1,-1,-1,-1,-1,-1,-1,-1,-1,-1,-1,-1,-1,-1],"split_conditions":[6.5E0,4.5E0,8.5E0,1.2995E2,3.5045E1,5.8780003E0,2.85E1,3.4361572E2,5.8225E0,9.304083E1,3.4304172E2,3.4309872E2,3.5E0,6.116E0,3.4245003E1,4.0869847E-1,3.5E0,2.4664119E-1,3.4270895E2,-2.85E1,2.8137589E-1,1.7864929E-1,3.4773996E-1,2.6560998E-1,3.965487E-1,3.4314505E2,3.4358105E2,1.3125E2,3.354E1,7.193544E1,3.5906798E-1,-2.25E1,1.2795E2,3.4270477E2,3.46748E2,2.5168762E-1,3.4392297E2,2.032692E-1,6.1665E0,1.6791815E-1,1.33E2,5.846E0,5.9300003E0,-1.95E1,6.4329996E0,2.0679322E-1,5.230573E-1,3.763E1,3.4376114E2,9.302481E1,1.285E2,3.0519435E-1,7.980347E-2,6.4915E0,1.5E0,3.5101014E-1,5.2367234E-1,2.5012208E-2,1.3925293E-1,5.9189997E0,8.297573E1,5.422327E-1,3.467584E2,3.109E1,3.482223E2,1.0830841E-1,2.3317377E-1,6.386E0,3.7114998E1,2.75E1,1.447937E-1,2.5305176E-2,3.4501147E2,3.2127696E-1,1.2745E2,9.5E0,2.3823512E-1,3.5E0,9.300713E1,3.0597663E-1,3.4815186E2,3.4388732E-2,1.295E2,4.8667908E-2,2.3984726E-1,3.4563684E2,2.9449376E-1,3.452855E-1,8.5E0,3.4589502E2,3.4831274E2,3.5775E1,3.4986856E2,3.4684256E2,1.05E1,3.575E1,8.5E0,3.438911E2,3.451998E2,1.5717265E-1,1.3601685E-2,5.922791E-2,1.9189301E-1,8.622479E1,6.1155E0,